tree
version=v4
num_class=3
num_tree_per_iteration=3
label_index=0
max_feature_idx=74
objective=multiclass num_class:3
feature_names=Column_0 Column_1 Column_2 Column_3 Column_4 Column_5 Column_6 Column_7 Column_8 Column_9 Column_10 Column_11 Column_12 Column_13 Column_14 Column_15 Column_16 Column_17 Column_18 Column_19 Column_20 Column_21 Column_22 Column_23 Column_24 Column_25 Column_26 Column_27 Column_28 Column_29 Column_30 Column_31 Column_32 Column_33 Column_34 Column_35 Column_36 Column_37 Column_38 Column_39 Column_40 Column_41 Column_42 Column_43 Column_44 Column_45 Column_46 Column_47 Column_48 Column_49 Column_50 Column_51 Column_52 Column_53 Column_54 Column_55 Column_56 Column_57 Column_58 Column_59 Column_60 Column_61 Column_62 Column_63 Column_64 Column_65 Column_66 Column_67 Column_68 Column_69 Column_70 Column_71 Column_72 Column_73 Column_74
feature_infos=[4800.0100000000002:67525.820000000007] [5519.7290000000003:64650.243000000002] [10.668912208212582:94.788946918077656] [-4434.2038952952189:4503.212980733414] [-1:1] [1:80] [-0.33333333333333331:0.83333333333333337] [0.10884726067220341:0.53406565656565663] [0.051471027944622702:0.3034258934959731] [-0.95833333333333315:0.83333333333333337] [-2.4952895704738061:2.340879720058564] [-2.1333771166245969:6.8973468834937393] [0:9] [0:38] [0:56] [4800.0100000000002:67525.820000000007] [5519.7290000000003:64650.243000000002] [10.668912208212582:94.788946918077656] [-4434.2038952952189:4503.212980733414] [-1:1] [1:80] [-0.33333333333333331:0.83333333333333337] [0.10884726067220341:0.53406565656565663] [0.051471027944622702:0.3034258934959731] [-0.95833333333333315:0.83333333333333337] [-2.4952895704738061:2.340879720058564] [-2.1333771166245969:6.8973468834937393] [0:9] [0:38] [0:56] [4800.0100000000002:67525.820000000007] [5519.7290000000003:64650.243000000002] [10.668912208212582:94.788946918077656] [-4434.2038952952189:4503.212980733414] [-1:1] [1:80] [-0.33333333333333331:0.83333333333333337] [0.10884726067220341:0.53406565656565663] [0.051471027944622702:0.3034258934959731] [-0.95833333333333315:0.83333333333333337] [-2.4952895704738061:2.340879720058564] [-2.1333771166245969:6.8973468834937393] [0:9] [0:38] [0:56] [4800.0100000000002:67525.820000000007] [5519.7290000000003:64650.243000000002] [10.668912208212582:94.788946918077656] [-4434.2038952952189:4503.212980733414] [-1:1] [1:80] [-0.33333333333333331:0.83333333333333337] [0.10884726067220341:0.53406565656565663] [0.051471027944622702:0.3034258934959731] [-0.95833333333333315:0.83333333333333337] [-2.4952895704738061:2.340879720058564] [-2.1333771166245969:6.8973468834937393] [0:9] [0:38] [0:56] [4800.0100000000002:67525.820000000007] [5519.7290000000003:64650.243000000002] [10.668912208212582:94.788946918077656] [-4434.2038952952189:4503.212980733414] [-1:1] [1:80] [-0.33333333333333331:0.83333333333333337] [0.10884726067220341:0.53406565656565663] [0.051471027944622702:0.3034258934959731] [-0.95833333333333315:0.83333333333333337] [-2.4952895704738061:2.340879720058564] [-2.1333771166245969:6.8973468834937393] [0:9] [0:38] [0:56]
tree_sizes=559 562 559 577 582 582 580 581 581 579 584 581 581 584 581 578 584 583 579 583 582 582 575 583 578 575 581 579 579 582 581 576 584 580 576 585 581 581 582 582 575 583 581 579 582 583 587 580 580 585 583 579 577 579 582 573 579 581 572 581 582 575 580 584 574 581 579 575 579 582 575 577 580 576 579 584 586 581 581 581 579 579 574 583 583 573 576 583 574 580 582 572 582 582 576 582 583 572 583 580 578 581 581 574 582 585 575 585 582 578 578 579 580 579 583 577 581 584 580 581 583 579 582 585 575 582 584 577 580 582 577 581 577 575 581 581 580 584 582 576 584 583 580 579 581 577 583 582 581 580 581 581 582 577 580 586 583 579 578 585 578 581 578 576 588 583 586 586 573 579 589 574 578 586 575 586 587 572 584 585 584 581 579 574 585 580 583 580 583 575 579 579 584 588 577 573 587 574 577 583 577 578 581 585 577 582 575 578 578 576 579 587 582 578 587 581 577 581 584 576 478 584 582 583 584 576 477 582 583 585 588 573 477 584 581 582 585 584 579 581 573 476 585 578 586 582 578 589 580 577 581 580 579 480 581 576 585 577 583 585 582 586 585 578 578 582 580 581 477 581 575 579 579 575 586 583 580 577 580 580 578 585 580 587 583 577 585 582 580 587 586 577 580 586 579 580 582 578 578 579 579 578 581 582 577 583 579 576 582 576 579 580 579 581 582 585 577 578 579 587 583 578 578 583 580 478 583 578 480 583 475 479 583 477 480 582 583 587 583 579 477 582 581 585 580 479 482 584 476 579 581 586 577 580 578 582 583 581 579 478 580 582 578 583 582 582 578 582 476 579 582 582 479 583 581 583 579 475 578 479 581 580 477 476 578 477 579 577 478 578 581 480 579 474 477 582 476 479 582 581 476 576 585 580 581 578 584 579 476 580 475 481 581 581 587 580 473 480 582 583 584 481 474 482 583 579 584 587 578 588 581 583 579 474 477 581 583 584 582 475 585 581 585 475 476 473 585 574 587 586 581 584 579 476 477 584 581 584 476 586 473 579 586 477 579 478 476 578 582 477 581 478 478 578 583 476 583 480 478 579 584 476 584 477 478 583 481 582 581 481 580 581 584 581 581

Tree=0
num_leaves=4
num_cat=0
split_feature=64 62 62
split_gain=496.946 20.6448 7.56113
threshold=-1.0000000180025095e-35 52.521841027486907 41.23824195108191
decision_type=2 2 2
left_child=2 -2 -1
right_child=1 -3 -4
leaf_value=-1.0390258008191111 -1.1110401354287123 -1.1302102075829206 -1.0566959045883682
leaf_weight=97.949204921722412 103.20314073562622 192.15003204345703 41.08166566491127
leaf_count=257 333 598 114
internal_value=-1.09814 -1.12351 -1.04425
internal_weight=434.384 295.353 139.031
internal_count=1302 931 371
is_linear=0
shrinkage=1


Tree=1
num_leaves=4
num_cat=0
split_feature=31 64 56
split_gain=129.347 64.2375 5.50471
threshold=30939.647000000004 1.0000000180025095e-35 -0.46125257887092469
decision_type=2 2 2
left_child=1 -1 -2
right_child=2 -3 -4
leaf_value=-1.0735414318628078 -1.1124872609794143 -1.1115043592786618 -1.1265977537807135
leaf_weight=194.91358518600464 45.504699319601059 73.307666927576065 120.65809193253517
leaf_count=613 131 224 334
internal_value=-1.09877 -1.08392 -1.12273
internal_weight=434.384 268.221 166.163
internal_count=1302 837 465
is_linear=0
shrinkage=1


Tree=2
num_leaves=4
num_cat=0
split_feature=64 62 62
split_gain=455.356 19.4574 14.8076
threshold=1.0000000180025095e-35 58.809622257243852 59.770231569400963
decision_type=2 2 2
left_child=1 -1 -2
right_child=2 -3 -4
leaf_value=-1.1265383878865611 -1.0659068460845429 -1.0986493696093182 -1.0406959750374045
leaf_weight=260.61324283480644 38.349572628736496 33.772836357355118 101.64839154481888
leaf_count=769 117 112 304
internal_value=-1.09893 -1.12334 -1.0476
internal_weight=434.384 294.386 139.998
internal_count=1302 881 421
is_linear=0
shrinkage=1


Tree=3
num_leaves=4
num_cat=0
split_feature=64 62 62
split_gain=462.27 19.6815 6.94314
threshold=-1.0000000180025095e-35 52.521841027486907 41.23824195108191
decision_type=2 2 2
left_child=2 -2 -1
right_child=1 -3 -4
leaf_value=0.056523476884742831 -0.012260829199258319 -0.03104718280064651 0.039762222154187017
leaf_weight=100.26749849319458 102.89558330178261 189.21064850687981 41.872356235980988
leaf_count=257 333 598 114
internal_value=0.000452192 -0.0244296 0.0515859
internal_weight=434.246 292.106 142.14
internal_count=1302 931 371
is_linear=0
shrinkage=0.0345712


Tree=4
num_leaves=4
num_cat=0
split_feature=31 64 56
split_gain=122.24 61.1008 5.34451
threshold=30939.647000000004 -1.0000000180025095e-35 -0.46125257887092469
decision_type=2 2 2
left_child=1 -1 -2
right_child=2 -3 -4
leaf_value=-0.0165643079150113 -0.013523526353857132 0.022980509606462942 -0.027484187099235231
leaf_weight=60.071631848812103 45.210235416889191 209.75478413701057 119.14061534404755
leaf_count=163 131 674 334
internal_value=-0.000139708 0.0141766 -0.0236438
internal_weight=434.177 269.826 164.351
internal_count=1302 837 465
is_linear=0
shrinkage=0.0345712


Tree=5
num_leaves=4
num_cat=0
split_feature=64 62 62
split_gain=419.771 18.5336 13.3391
threshold=1.0000000180025095e-35 58.809622257243852 59.770231569400963
decision_type=2 2 2
left_child=1 -1 -2
right_child=2 -3 -4
leaf_value=-0.027356291210735083 0.03085885479091242 -0.00013081143886108841 0.054548186517289626
leaf_weight=256.86443746089935 39.038988053798676 33.818349182605743 104.32755425572395
leaf_count=769 117 112 304
internal_value=-0.000312648 -0.0241888 0.0480975
internal_weight=434.049 290.683 143.367
internal_count=1302 881 421
is_linear=0
shrinkage=0.0345712


Tree=6
num_leaves=4
num_cat=0
split_feature=64 62 62
split_gain=426.982 18.6688 6.34271
threshold=-1.0000000180025095e-35 52.521841027486907 41.23824195108191
decision_type=2 2 2
left_child=2 -2 -1
right_child=1 -3 -4
leaf_value=0.053426409191329446 -0.012083769283728448 -0.030459099260845768 0.037564389347780697
leaf_weight=102.56188866496086 102.56097415089607 185.78158646821976 42.661717742681503
leaf_count=257 333 598 114
internal_value=0.000424415 -0.0239232 0.0487667
internal_weight=433.566 288.343 145.224
internal_count=1302 931 371
is_linear=0
shrinkage=0.0345712


Tree=7
num_leaves=4
num_cat=0
split_feature=31 64 56
split_gain=115.545 57.7524 5.19485
threshold=30939.647000000004 1.0000000180025095e-35 -0.46125257887092469
decision_type=2 2 2
left_child=1 -1 -2
right_child=2 -3 -4
leaf_value=0.023362877170535246 -0.01317383960514041 -0.012614000487866555 -0.026996441843026353
leaf_weight=198.32021567225456 44.907324403524399 72.941199332475662 117.57161682844162
leaf_count=613 131 224 334
internal_value=-0.000120733 0.0136888 -0.023176
internal_weight=433.74 271.261 162.479
internal_count=1302 837 465
is_linear=0
shrinkage=0.0345712


Tree=8
num_leaves=4
num_cat=0
split_feature=64 62 62
split_gain=391.857 17.752 12.3261
threshold=1.0000000180025095e-35 58.809622257243852 59.770231569400963
decision_type=2 2 2
left_child=1 -1 -2
right_child=2 -3 -4
leaf_value=-0.026873381902118579 0.029364936341395954 -0.00022279580364509125 0.051963907787965037
leaf_weight=253.48453915119171 39.58338651061058 33.862433791160583 106.33385193347931
leaf_count=769 117 112 304
internal_value=-0.000303845 -0.0237327 0.0458334
internal_weight=433.264 287.347 145.917
internal_count=1302 881 421
is_linear=0
shrinkage=0.0345712


Tree=9
num_leaves=4
num_cat=0
split_feature=64 62 62
split_gain=398.962 17.8821 5.94134
threshold=-1.0000000180025095e-35 52.521841027486907 41.23824195108191
decision_type=2 2 2
left_child=2 -2 -1
right_child=1 -3 -4
leaf_value=0.051019362453697141 -0.011909942437611856 -0.029966798168635525 0.03578178079718395
leaf_weight=104.26518532633781 102.22623893618584 182.69510278105736 43.277142912149429
leaf_count=257 333 598 114
internal_value=0.000406463 -0.0234882 0.0465499
internal_weight=432.464 284.921 147.542
internal_count=1302 931 371
is_linear=0
shrinkage=0.0345712


Tree=10
num_leaves=4
num_cat=0
split_feature=31 64 53
split_gain=109.244 55.089 5.21932
threshold=30939.647000000004 -1.0000000180025095e-35 0.10258239482558541
decision_type=2 2 2
left_child=1 -1 -2
right_child=2 -3 -4
leaf_value=-0.016147824495852323 -0.0071060000452679451 0.021455952729333191 -0.025206584795164539
leaf_weight=59.596212804317474 22.074638098478317 212.89286974072456 138.48067596554756
leaf_count=163 66 674 399
internal_value=-9.70273e-05 0.0132316 -0.0227179
internal_weight=433.044 272.489 160.555
internal_count=1302 837 465
is_linear=0
shrinkage=0.0345712


Tree=11
num_leaves=4
num_cat=0
split_feature=64 62 62
split_gain=362.722 16.9648 11.6195
threshold=1.0000000180025095e-35 58.809622257243852 49.729206008197728
decision_type=2 2 2
left_child=1 -1 -2
right_child=2 -3 -4
leaf_value=-0.02635279650574494 0.0015213807678733948 -0.00028588477025727303 0.045693303169225909
leaf_weight=249.59694090485573 7.4958564937114707 33.891881287097931 140.98562204837799
leaf_count=769 23 112 398
internal_value=-0.00030966 -0.0232364 0.0434634
internal_weight=431.97 283.489 148.481
internal_count=1302 881 421
is_linear=0
shrinkage=0.0345712


Tree=12
num_leaves=4
num_cat=0
split_feature=64 62 62
split_gain=370.029 17.0264 5.51882
threshold=-1.0000000180025095e-35 52.521841027486907 41.23824195108191
decision_type=2 2 2
left_child=2 -2 -1
right_child=1 -3 -4
leaf_value=0.048521468939329362 -0.011739055168376396 -0.029439786946552825 0.033941835073462705
leaf_weight=105.92916297912598 101.88917919993401 179.13887023925781 43.885402679443359
leaf_count=257 333 598 114
internal_value=0.000370197 -0.0230222 0.0442506
internal_weight=430.843 281.028 149.815
internal_count=1302 931 371
is_linear=0
shrinkage=0.0345712


Tree=13
num_leaves=4
num_cat=0
split_feature=31 64 56
split_gain=103.236 51.9667 5.07295
threshold=30939.647000000004 1.0000000180025095e-35 -0.46125257887092469
decision_type=2 2 2
left_child=1 -1 -2
right_child=2 -3 -4
leaf_value=0.021843304871843293 -0.012304428449043836 -0.012294813152333328 -0.026102637829297424
leaf_weight=201.0670745074749 44.121458947658539 72.513547152280807 114.45293727517128
leaf_count=613 131 224 334
internal_value=-6.93825e-05 0.0127949 -0.0222634
internal_weight=432.155 273.581 158.574
internal_count=1302 837 465
is_linear=0
shrinkage=0.0345712


Tree=14
num_leaves=4
num_cat=0
split_feature=64 62 32
split_gain=339.731 16.2879 11.211
threshold=1.0000000180025095e-35 58.809622257243852 64.90882544416344
decision_type=2 2 2
left_child=1 -1 -2
right_child=2 -3 -4
leaf_value=-0.025904052748980007 0.031831905474593379 -0.00035060264558224119 0.050723867625738724
leaf_weight=246.09831961989403 72.494944393634796 33.921560943126678 77.866148680448532
leaf_count=769 206 112 215
internal_value=-0.000300925 -0.0228085 0.0416153
internal_weight=430.381 280.02 150.361
internal_count=1302 881 421
is_linear=0
shrinkage=0.0345712


Tree=15
num_leaves=4
num_cat=0
split_feature=64 62 62
split_gain=346.94 16.3922 5.25007
threshold=-1.0000000180025095e-35 52.521841027486907 41.23824195108191
decision_type=2 2 2
left_child=2 -2 -1
right_child=1 -3 -4
leaf_value=0.046582528831000308 -0.011552576820409039 -0.028997165984322983 0.032437528406550828
leaf_weight=107.09468087553978 101.51605919003487 175.98350298404694 44.347199618816376
leaf_count=257 333 598 114
internal_value=0.000353101 -0.0226155 0.0424404
internal_weight=428.941 277.5 151.442
internal_count=1302 931 371
is_linear=0
shrinkage=0.0345712


Tree=16
num_leaves=4
num_cat=0
split_feature=31 64 53
split_gain=97.6498 49.6687 5.00771
threshold=30939.647000000004 -1.0000000180025095e-35 0.10258239482558541
decision_type=2 2 2
left_child=1 -1 -2
right_child=2 -3 -4
leaf_value=-0.015695079392158216 -0.0064471009099508047 0.020091050883974386 -0.024310083580932347
leaf_weight=59.064095228910446 21.78905725479126 215.39683127403259 134.78588861227036
leaf_count=163 66 674 399
internal_value=-3.85106e-05 0.0123899 -0.0218243
internal_weight=431.036 274.461 156.575
internal_count=1302 837 465
is_linear=0
shrinkage=0.0345712


Tree=17
num_leaves=4
num_cat=0
split_feature=64 62 62
split_gain=315.447 15.6098 10.6813
threshold=1.0000000180025095e-35 58.809622257243852 59.770231569400963
decision_type=2 2 2
left_child=1 -1 -2
right_child=2 -3 -4
leaf_value=-0.025423923689195722 0.024600224242997359 -0.0003885470148734775 0.045215059332860894
leaf_weight=242.13496172428131 41.177601844072342 33.937721699476242 111.05522584915161
leaf_count=769 117 112 304
internal_value=-0.000314869 -0.0223463 0.0396389
internal_weight=428.306 276.073 152.233
internal_count=1302 881 421
is_linear=0
shrinkage=0.0345712


Tree=18
num_leaves=4
num_cat=0
split_feature=64 62 62
split_gain=322.833 15.7038 4.95212
threshold=-1.0000000180025095e-35 52.521841027486907 41.23824195108191
decision_type=2 2 2
left_child=2 -2 -1
right_child=1 -3 -4
leaf_value=0.04452784337052066 -0.011368396073766307 -0.028527612095550312 0.030859885592285898
leaf_weight=108.19836926460266 101.13897931575775 172.40137794613838 44.800081610679626
leaf_count=257 333 598 114
internal_value=0.000310354 -0.0221832 0.0405257
internal_weight=426.539 273.54 152.998
internal_count=1302 931 371
is_linear=0
shrinkage=0.0345712


Tree=19
num_leaves=4
num_cat=0
split_feature=61 64 56
split_gain=92.3741 47.0826 4.9712
threshold=30939.647000000004 -1.0000000180025095e-35 -0.46125257887092469
decision_type=2 2 2
left_child=1 -1 -2
right_child=2 -3 -4
leaf_value=-0.015339363476863476 -0.011463221428561737 0.019480498127327127 -0.025269011096512778
leaf_weight=59.104066073894501 43.316862851381302 216.14140218496323 111.18330729007721
leaf_count=165 131 672 334
internal_value=-4.93219e-06 0.0120036 -0.0213983
internal_weight=429.746 275.245 154.5
internal_count=1302 837 465
is_linear=0
shrinkage=0.0345712


Tree=20
num_leaves=4
num_cat=0
split_feature=64 62 62
split_gain=296.246 15.0191 10.496
threshold=1.0000000180025095e-35 58.809622257243852 73.392700555475486
decision_type=2 2 2
left_child=1 -1 -2
right_child=2 -3 -4
leaf_value=-0.025004313305045975 0.031993263169640039 -0.00043014288525407263 0.051476480971703577
leaf_weight=238.56799279153347 105.36989513039589 33.955109924077988 48.147217333316803
leaf_count=769 292 112 129
internal_value=-0.000305742 -0.0219425 0.0381037
internal_weight=426.04 272.523 153.517
internal_count=1302 881 421
is_linear=0
shrinkage=0.0345712


Tree=21
num_leaves=4
num_cat=0
split_feature=64 62 18
split_gain=300.853 15.2009 4.74296
threshold=-1.0000000180025095e-35 47.84755057646219 -2368.5740482120032
decision_type=2 2 2
left_child=2 -2 -1
right_child=1 -3 -4
leaf_value=0.014854454163148364 -0.0073631560570617234 -0.026445411288798844 0.040313763830280437
leaf_weight=9.3072464168071729 66.101016819477081 203.47458915412426 144.90330094099045
leaf_count=24 217 714 347
internal_value=0.000264686 -0.0217664 0.0387772
internal_weight=423.786 269.576 154.211
internal_count=1302 931 371
is_linear=0
shrinkage=0.0345712


Tree=22
num_leaves=4
num_cat=0
split_feature=31 62 68
split_gain=87.427 45.7074 4.86845
threshold=30939.647000000004 74.2839952938876 0.10258239482558541
decision_type=2 2 2
left_child=1 -1 -2
right_child=2 -3 -4
leaf_value=0.016606970461126826 -0.0058133559979836403 -0.028290874163666151 -0.023490205879370955
leaf_weight=245.29521709680557 21.712601602077484 30.465449064970016 130.79093617200851
leaf_count=745 67 92 398
internal_value=3.07921e-05 0.0116468 -0.0209735
internal_weight=428.264 275.761 152.504
internal_count=1302 837 465
is_linear=0
shrinkage=0.0345712


Tree=23
num_leaves=4
num_cat=0
split_feature=64 62 62
split_gain=278.487 14.4657 10.041
threshold=1.0000000180025095e-35 58.809622257243852 73.392700555475486
decision_type=2 2 2
left_child=1 -1 -2
right_child=2 -3 -4
leaf_value=-0.024597006204639581 0.030722964679441023 -0.00046040758342446393 0.049710294864492875
leaf_weight=234.98074308037758 106.06116130948067 33.966555714607239 48.512900710105896
leaf_count=769 292 112 129
internal_value=-0.000295988 -0.0215487 0.0366821
internal_weight=423.521 268.947 154.574
internal_count=1302 881 421
is_linear=0
shrinkage=0.0345712


Tree=24
num_leaves=4
num_cat=0
split_feature=64 62 62
split_gain=282.95 14.6857 4.83669
threshold=-1.0000000180025095e-35 52.521841027486907 41.23824195108191
decision_type=2 2 2
left_child=2 -2 -1
right_child=1 -3 -4
leaf_value=0.041306949409375453 -0.010949978652825683 -0.027712454912337956 0.027897442157031188
leaf_weight=109.49118357896805 100.25781172513962 165.7195435911417 45.510087847709656
leaf_count=257 333 598 114
internal_value=0.000242401 -0.021394 0.0373698
internal_weight=420.979 265.977 155.001
internal_count=1302 931 371
is_linear=0
shrinkage=0.0345712


Tree=25
num_leaves=4
num_cat=0
split_feature=61 62 61
split_gain=82.8741 39.5285 27.1351
threshold=19663.599500000004 74.2839952938876 30939.647000000004
decision_type=2 2 2
left_child=1 -1 -2
right_child=2 -3 -4
leaf_value=0.029566911488821405 0.00058145114988862449 -0.025559175992573062 -0.020562054265883915
leaf_weight=118.27402031421661 140.14157462120056 17.898912936449051 150.40032793581486
leaf_count=367 415 55 465
internal_value=6.66998e-05 0.022321 -0.0103636
internal_weight=426.715 136.173 290.542
internal_count=1302 422 880
is_linear=0
shrinkage=0.0345712


Tree=26
num_leaves=4
num_cat=0
split_feature=64 62 62
split_gain=260.581 13.8691 9.68265
threshold=1.0000000180025095e-35 58.809622257243852 59.770231569400963
decision_type=2 2 2
left_child=1 -1 -2
right_child=2 -3 -4
leaf_value=-0.024180069307424498 0.021067807511406661 -0.00053092707381340314 0.040480189385877378
leaf_weight=231.1457532197237 42.117151588201523 33.996952742338181 113.37265220284462
leaf_count=769 117 112 304
internal_value=-0.000310266 -0.0211477 0.035222
internal_weight=420.633 265.143 155.49
internal_count=1302 881 421
is_linear=0
shrinkage=0.0345712


Tree=27
num_leaves=4
num_cat=0
split_feature=64 62 47
split_gain=263.322 14.044 4.34438
threshold=-1.0000000180025095e-35 52.521841027486907 39.867592727515849
decision_type=2 2 2
left_child=2 -2 -1
right_child=1 -3 -4
leaf_value=0.040610474748967854 -0.011146032038059276 -0.027559238080635148 0.028853833990163048
leaf_weight=89.38395419716835 101.39604526758194 161.61831682920456 64.7987240254879
leaf_count=209 338 596 159
internal_value=-0.000202841 -0.0212317 0.0356695
internal_weight=417.197 263.014 154.183
internal_count=1302 934 368
is_linear=0
shrinkage=0.0345712


Tree=28
num_leaves=4
num_cat=0
split_feature=46 62 68
split_gain=74.5755 41.6468 5.11616
threshold=30939.647000000004 73.537464666662771 0.11119992645154901
decision_type=2 2 2
left_child=1 -1 -2
right_child=2 -3 -4
leaf_value=0.016194166125634003 -0.0070526501876280508 -0.025899561016126199 -0.022382345690606684
leaf_weight=241.98644670844078 33.445926696062088 31.780886620283127 117.19067554175854
leaf_count=730 105 99 368
internal_value=0.000557896 0.0113076 -0.0189787
internal_weight=424.404 273.767 150.637
internal_count=1302 829 473
is_linear=0
shrinkage=0.0345712


Tree=29
num_leaves=4
num_cat=0
split_feature=64 62 62
split_gain=238.207 13.5687 10.9975
threshold=1.0000000180025095e-35 58.809622257243852 49.729206008197728
decision_type=2 2 2
left_child=1 -1 -2
right_child=2 -3 -4
leaf_value=-0.023517522987800674 -0.0088680943499624236 6.9942396815843912e-05 0.035527971580974191
leaf_weight=228.18068121373653 6.9822806417942038 33.416367948055267 148.4373676776886
leaf_count=772 21 110 399
internal_value=-0.000364849 -0.0205045 0.0335335
internal_weight=417.017 261.597 155.42
internal_count=1302 882 420
is_linear=0
shrinkage=0.0345712


Tree=30
num_leaves=4
num_cat=0
split_feature=64 47 18
split_gain=248.231 13.8323 4.33233
threshold=-1.0000000180025095e-35 39.590443535854959 -2313.335814172759
decision_type=2 2 2
left_child=2 -2 -1
right_child=1 -3 -4
leaf_value=0.013658417772462385 0.0043867124666369167 -0.023401616580630055 0.036086547210369559
leaf_weight=11.089518189430235 23.547085136175156 235.80167017877102 143.40765905380249
leaf_count=28 75 859 340
internal_value=-0.000213349 -0.0208786 0.0344767
internal_weight=413.846 259.349 154.497
internal_count=1302 934 368
is_linear=0
shrinkage=0.0345712


Tree=31
num_leaves=4
num_cat=0
split_feature=61 62 67
split_gain=72.2237 35.295 24.26
threshold=19262.240000000002 75.251425128680282 0.28508987232824445
decision_type=2 2 2
left_child=1 -1 -2
right_child=2 -3 -4
leaf_value=0.029307423254843968 0.0036747912491686954 -0.025526223125066104 -0.016658666184673265
leaf_weight=111.02207213640213 114.42508134245872 16.059023141860962 181.15543699264526
leaf_count=342 346 51 563
internal_value=0.000583268 0.0223782 -0.00878718
internal_weight=422.662 127.081 295.581
internal_count=1302 393 909
is_linear=0
shrinkage=0.0345712


Tree=32
num_leaves=4
num_cat=0
split_feature=64 62 62
split_gain=223.128 13.0175 10.3501
threshold=1.0000000180025095e-35 58.809622257243852 49.729206008197728
decision_type=2 2 2
left_child=1 -1 -2
right_child=2 -3 -4
leaf_value=-0.023121400718320164 -0.0088669188415872457 -1.7508349392187734e-06 0.034206184882678105
leaf_weight=224.37554597854614 6.9801100194454184 33.445313304662704 148.85015979409218
leaf_count=772 21 110 399
internal_value=-0.000382524 -0.0201222 0.0322768
internal_weight=413.651 257.821 155.83
internal_count=1302 882 420
is_linear=0
shrinkage=0.0345712


Tree=33
num_leaves=4
num_cat=0
split_feature=64 62 47
split_gain=233.928 13.349 4.28339
threshold=-1.0000000180025095e-35 52.521841027486907 39.867592727515849
decision_type=2 2 2
left_child=2 -2 -1
right_child=1 -3 -4
leaf_value=0.038239143459485869 -0.01070080297586269 -0.026874973701599039 0.02658557752675008
leaf_weight=89.580891340970993 100.40816120803356 155.33382937312126 65.084238082170486
leaf_count=209 338 596 159
internal_value=-0.000227194 -0.0205248 0.0333352
internal_weight=410.407 255.742 154.665
internal_count=1302 934 368
is_linear=0
shrinkage=0.0345712


Tree=34
num_leaves=4
num_cat=0
split_feature=61 62 46
split_gain=67.5996 32.5669 23.1026
threshold=19358.648500000003 75.251425128680282 30939.647000000004
decision_type=2 2 2
left_child=1 -1 -2
right_child=2 -3 -4
leaf_value=0.027966891105629346 0.0011877447805382117 -0.025034955699172187 -0.018259678376773458
leaf_weight=113.00873625278473 145.10772290825844 15.791682571172712 146.93286809325218
leaf_count=346 432 51 473
internal_value=0.000604891 0.0214686 -0.00859674
internal_weight=420.841 128.8 292.041
internal_count=1302 397 905
is_linear=0
shrinkage=0.0345712


Tree=35
num_leaves=4
num_cat=0
split_feature=64 62 62
split_gain=209.564 12.5642 9.81106
threshold=1.0000000180025095e-35 58.809622257243852 49.729206008197728
decision_type=2 2 2
left_child=1 -1 -2
right_child=2 -3 -4
leaf_value=-0.022747339107923412 -0.0089132360926997643 -8.2863342370845646e-06 0.033018277078908469
leaf_weight=220.71206872165203 6.9813930988311759 33.441692054271698 149.06274524331093
leaf_count=772 21 110 399
internal_value=-0.000393276 -0.0197553 0.0311423
internal_weight=410.198 254.154 156.044
internal_count=1302 882 420
is_linear=0
shrinkage=0.0345712


Tree=36
num_leaves=4
num_cat=0
split_feature=64 47 18
split_gain=220.481 13.0028 4.20453
threshold=-1.0000000180025095e-35 39.590443535854959 -2313.335814172759
decision_type=2 2 2
left_child=2 -2 -1
right_child=1 -3 -4
leaf_value=0.011741279423901659 0.0042674891010054204 -0.022705897721373387 0.033838537474720209
leaf_weight=11.086145311594008 23.562482744455338 228.46997149288654 143.53617936372757
leaf_count=28 75 859 340
internal_value=-0.000245523 -0.0201842 0.0322542
internal_weight=406.655 252.032 154.622
internal_count=1302 934 368
is_linear=0
shrinkage=0.0345712


Tree=37
num_leaves=4
num_cat=0
split_feature=46 64 68
split_gain=63.4663 36.101 4.94255
threshold=30939.647000000004 -1.0000000180025095e-35 0.11119992645154901
decision_type=2 2 2
left_child=1 -1 -2
right_child=2 -3 -4
leaf_value=-0.01479118106654094 -0.0060250423996903463 0.01667033751016286 -0.021310767906985325
leaf_weight=54.392350435256958 32.628406569361687 219.49062231183052 112.28416006267071
leaf_count=155 105 674 368
internal_value=0.000632782 0.0104222 -0.017869
internal_weight=418.796 273.883 144.913
internal_count=1302 829 473
is_linear=0
shrinkage=0.0345712


Tree=38
num_leaves=4
num_cat=0
split_feature=64 62 32
split_gain=196.771 12.1182 9.47538
threshold=1.0000000180025095e-35 58.809622257243852 64.90882544416344
decision_type=2 2 2
left_child=1 -1 -2
right_child=2 -3 -4
leaf_value=-0.022377363656949999 0.021243878667581435 -1.9535371177796475e-05 0.03829168799268258
leaf_weight=217.01546007394791 75.309166520833969 33.438326150178909 80.745069444179535
leaf_count=772 206 110 214
internal_value=-0.000406298 -0.0193923 0.0300647
internal_weight=406.508 250.454 156.054
internal_count=1302 882 420
is_linear=0
shrinkage=0.0345712


Tree=39
num_leaves=4
num_cat=0
split_feature=64 62 47
split_gain=206.585 12.7315 4.20417
threshold=-1.0000000180025095e-35 52.521841027486907 39.867592727515849
decision_type=2 2 2
left_child=2 -2 -1
right_child=1 -3 -4
leaf_value=0.035972442892916158 -0.010236847876269158 -0.026217449678033213 0.024421201842671141
leaf_weight=89.337799549102783 99.334689751267433 148.89042307436466 65.097170174121857
leaf_count=209 338 596 159
internal_value=-0.000290447 -0.0198223 0.0311034
internal_weight=402.66 248.225 154.435
internal_count=1302 934 368
is_linear=0
shrinkage=0.0345712


Tree=40
num_leaves=4
num_cat=0
split_feature=61 62 61
split_gain=60.5648 29.9576 20.8144
threshold=19262.240000000002 75.251425128680282 30939.647000000004
decision_type=2 2 2
left_child=1 -1 -2
right_child=2 -3 -4
leaf_value=0.026692499362408344 0.0010690134468747427 -0.024563999268594334 -0.01749243863287947
leaf_weight=112.28339579701424 145.97753202915192 15.510799795389174 142.87730507552624
leaf_count=342 436 51 473
internal_value=0.00065498 0.0204713 -0.0081121
internal_weight=416.649 127.794 288.855
internal_count=1302 393 909
is_linear=0
shrinkage=0.0345712


Tree=41
num_leaves=4
num_cat=0
split_feature=64 62 62
split_gain=186.115 11.7595 9.25016
threshold=1.0000000180025095e-35 58.809622257243852 49.729206008197728
decision_type=2 2 2
left_child=1 -1 -2
right_child=2 -3 -4
leaf_value=-0.022036737500101437 -0.0096133743129815825 1.7505388069022246e-05 0.031012429695927921
leaf_weight=213.61620479822159 7.0139394104480735 33.415892779827118 148.91775304079056
leaf_count=772 21 110 399
internal_value=-0.000386996 -0.0190535 0.029185
internal_weight=402.964 247.032 155.932
internal_count=1302 882 420
is_linear=0
shrinkage=0.0345712


Tree=42
num_leaves=4
num_cat=0
split_feature=64 47 62
split_gain=194.958 12.3753 4.13325
threshold=-1.0000000180025095e-35 38.024758890339307 36.59609418713459
decision_type=2 2 2
left_child=2 -2 -1
right_child=1 -3 -4
leaf_value=0.036476477555201572 0.0088139621615920434 -0.021633409710761053 0.025082100136044488
leaf_weight=68.564687460660934 17.158349558711052 227.42007705569267 85.489420801401138
leaf_count=160 54 880 208
internal_value=-0.000309524 -0.0194974 0.0301534
internal_weight=398.633 244.578 154.054
internal_count=1302 934 368
is_linear=0
shrinkage=0.0345712


Tree=43
num_leaves=4
num_cat=0
split_feature=61 62 67
split_gain=56.8486 27.9948 21.2117
threshold=19262.240000000002 75.251425128680282 0.28508987232824445
decision_type=2 2 2
left_child=1 -1 -2
right_child=2 -3 -4
leaf_value=0.025803283294580173 0.0037935164085714994 -0.024112974278962872 -0.015455977612676315
leaf_weight=112.62197995185852 112.91582275927067 15.246212273836134 173.60957887768745
leaf_count=342 346 51 563
internal_value=0.000683957 0.0198516 -0.00787001
internal_weight=414.394 127.868 286.525
internal_count=1302 393 909
is_linear=0
shrinkage=0.0345712


Tree=44
num_leaves=4
num_cat=0
split_feature=64 62 32
split_gain=174.942 11.3564 9.13409
threshold=1.0000000180025095e-35 58.809622257243852 64.90882544416344
decision_type=2 2 2
left_child=1 -1 -2
right_child=2 -3 -4
leaf_value=-0.021683529440933765 0.019570280429585512 1.7777174653095198e-05 0.036330066639231995
leaf_weight=209.99248090386391 75.253658354282379 33.404945880174637 80.374406784772873
leaf_count=772 206 110 214
internal_value=-0.000401081 -0.0187051 0.0282259
internal_weight=399.025 243.397 155.628
internal_count=1302 882 420
is_linear=0
shrinkage=0.0345712


Tree=45
num_leaves=4
num_cat=0
split_feature=64 62 18
split_gain=184.21 12.2132 4.12964
threshold=-1.0000000180025095e-35 52.521841027486907 -2313.335814172759
decision_type=2 2 2
left_child=2 -2 -1
right_child=1 -3 -4
leaf_value=0.0088692861360981385 -0.0097914745907897189 -0.025626247078080065 0.030846859329024423
leaf_weight=11.007375925779341 98.261967450380325 142.83956015110016 142.55515399575233
leaf_count=28 338 596 340
internal_value=-0.000323224 -0.0191727 0.0292715
internal_weight=394.664 241.102 153.563
internal_count=1302 934 368
is_linear=0
shrinkage=0.0345712


Tree=46
num_leaves=4
num_cat=0
split_feature=46 49 56
split_gain=54.0749 33.3462 4.93775
threshold=30939.647000000004 -1.0000000180025095e-35 -0.45791427739332558
decision_type=2 2 2
left_child=1 -1 -2
right_child=2 -3 -4
leaf_value=-0.014050110301530326 -0.0065506600707564908 0.015815882830486194 -0.020946528677710158
leaf_weight=56.296924948692322 39.915275856852531 216.54530155658722 99.364207789301872
leaf_count=160 133 669 340
internal_value=0.000706273 0.00965348 -0.0168209
internal_weight=412.122 272.842 139.279
internal_count=1302 829 473
is_linear=0
shrinkage=0.0345712


Tree=47
num_leaves=4
num_cat=0
split_feature=64 62 32
split_gain=164.69 10.9867 8.76984
threshold=1.0000000180025095e-35 58.809622257243852 64.90882544416344
decision_type=2 2 2
left_child=1 -1 -2
right_child=2 -3 -4
leaf_value=-0.021344940195100588 0.018854951713540746 3.0324709581236549e-05 0.035297790942407231
leaf_weight=206.47074083983898 75.191030323505402 33.38618665933609 80.029498606920242
leaf_count=772 206 110 214
internal_value=-0.000413857 -0.0183697 0.0273326
internal_weight=395.077 239.857 155.221
internal_count=1302 882 420
is_linear=0
shrinkage=0.0345712


Tree=48
num_leaves=4
num_cat=0
split_feature=64 47 62
split_gain=173.319 11.842 4.17236
threshold=-1.0000000180025095e-35 48.034061210330442 41.23824195108191
decision_type=2 2 2
left_child=2 -2 -1
right_child=1 -3 -4
leaf_value=0.032162049135661314 -0.0066984939862569422 -0.023757128407188938 0.019807742829217129
leaf_weight=105.59365826845169 68.2605811804533 169.18262043595314 47.310210883617401
leaf_count=251 235 699 117
internal_value=-0.000367159 -0.0188531 0.0283395
internal_weight=390.347 237.443 152.904
internal_count=1302 934 368
is_linear=0
shrinkage=0.0345712


Tree=49
num_leaves=4
num_cat=0
split_feature=61 49 3
split_gain=51.0978 31.6344 4.97258
threshold=30939.647000000004 -1.0000000180025095e-35 -1839.2686380619277
decision_type=2 2 2
left_child=1 -1 -2
right_child=2 -3 -4
leaf_value=-0.013746231209756852 -0.00052881027613307441 0.015392475671610804 -0.019179544177010396
leaf_weight=56.060631901025772 19.997707083821297 216.48821538686752 117.30787447094917
leaf_count=161 68 668 405
internal_value=0.000734848 0.00939893 -0.0164632
internal_weight=409.854 272.549 137.306
internal_count=1302 829 473
is_linear=0
shrinkage=0.0345712


Tree=50
num_leaves=4
num_cat=0
split_feature=64 62 62
split_gain=155.732 10.6434 8.67332
threshold=1.0000000180025095e-35 58.809622257243852 49.729206008197728
decision_type=2 2 2
left_child=1 -1 -2
right_child=2 -3 -4
leaf_value=-0.021019044677029468 -0.010856210634632763 4.7883782828687733e-05 0.028354115092870658
leaf_weight=203.11701233685017 7.0650023221969596 33.371019393205643 147.65283942222595
leaf_count=772 21 110 399
internal_value=-0.000403525 -0.0180463 0.0265636
internal_weight=391.206 236.488 154.718
internal_count=1302 882 420
is_linear=0
shrinkage=0.0345712


Tree=51
num_leaves=4
num_cat=0
split_feature=64 47 47
split_gain=163.168 11.6052 4.06301
threshold=-1.0000000180025095e-35 33.819771595619677 39.867592727515849
decision_type=2 2 2
left_child=2 -2 -1
right_child=1 -3 -4
leaf_value=0.032303831917815225 0.025719297585151152 -0.019877765722058738 0.020867545479693713
leaf_weight=87.708597183227539 6.8732280433177939 227.00549356639385 64.382773786783218
leaf_count=209 21 913 159
internal_value=-0.00041131 -0.0185378 0.0274627
internal_weight=385.97 233.879 152.091
internal_count=1302 934 368
is_linear=0
shrinkage=0.0345712


Tree=52
num_leaves=4
num_cat=0
split_feature=61 62 67
split_gain=48.767 25.0782 18.9321
threshold=19262.240000000002 75.251425128680282 0.28508987232824445
decision_type=2 2 2
left_child=1 -1 -2
right_child=2 -3 -4
leaf_value=0.024047753645559142 0.0037110639751200222 -0.023638361344607665 -0.014647487431089526
leaf_weight=112.70449423789978 111.77905733883381 14.926425307989119 168.09284517168999
leaf_count=342 346 51 563
internal_value=0.000761062 0.0184709 -0.0073152
internal_weight=407.503 127.631 279.872
internal_count=1302 393 909
is_linear=0
shrinkage=0.0345712


Tree=53
num_leaves=4
num_cat=0
split_feature=64 62 32
split_gain=147.398 10.3304 8.64343
threshold=1.0000000180025095e-35 58.809622257243852 64.90882544416344
decision_type=2 2 2
left_child=1 -1 -2
right_child=2 -3 -4
leaf_value=-0.020702419170843266 0.0174177635921095 8.2793169302481517e-05 0.033798762299503703
leaf_weight=199.82885029911995 74.85288679599762 33.347547113895416 79.264083236455917
leaf_count=772 206 110 214
internal_value=-0.000390871 -0.0177298 0.0258427
internal_weight=387.293 233.176 154.117
internal_count=1302 882 420
is_linear=0
shrinkage=0.0345712


Tree=54
num_leaves=4
num_cat=0
split_feature=64 47 18
split_gain=158.044 12.0319 4.85223
threshold=-1.0000000180025095e-35 48.034061210330442 -2313.335814172759
decision_type=2 2 2
left_child=2 -2 -1
right_child=1 -3 -4
leaf_value=0.0048704890784185342 -0.006116072653140063 -0.023472986318300502 0.028517505044084623
leaf_weight=11.186858057975767 67.219328507781029 164.6575688123703 142.19160422682762
leaf_count=29 234 706 344
internal_value=-0.000432669 -0.0184414 0.0267928
internal_weight=385.255 231.877 153.378
internal_count=1313 940 373
is_linear=0
shrinkage=0.0345712


Tree=55
num_leaves=4
num_cat=0
split_feature=61 62 0
split_gain=44.6519 24.0269 14.4196
threshold=19262.240000000002 74.2839952938876 31756.400000000005
decision_type=2 2 2
left_child=1 -1 -2
right_child=2 -3 -4
leaf_value=0.022370820569051701 -0.00029125564310263742 -0.0225858200172105 -0.016075747844612048
leaf_weight=114.9767918586731 148.2650063931942 16.211543053388596 129.66238808631897
leaf_count=348 450 56 459
internal_value=0.000191563 0.0168153 -0.00765525
internal_weight=409.116 131.188 277.927
internal_count=1313 404 909
is_linear=0
shrinkage=0.0345712


Tree=56
num_leaves=4
num_cat=0
split_feature=64 62 47
split_gain=149.281 10.5314 6.94061
threshold=1.0000000180025095e-35 58.809622257243852 61.37159643997483
decision_type=2 2 2
left_child=1 -1 -2
right_child=2 -3 -4
leaf_value=-0.020415351402781178 0.016862504778541159 0.00042177601681266634 0.032040710237308305
leaf_weight=197.48706209659576 56.844696044921875 33.976792812347412 98.22534316778183
leaf_count=777 157 112 267
internal_value=0.000228483 -0.0173567 0.0264768
internal_weight=386.534 231.464 155.07
internal_count=1313 889 424
is_linear=0
shrinkage=0.0345712


Tree=57
num_leaves=4
num_cat=0
split_feature=64 47 18
split_gain=149.522 11.7499 4.72039
threshold=-1.0000000180025095e-35 33.452565479697391 -2313.335814172759
decision_type=2 2 2
left_child=2 -2 -1
right_child=1 -3 -4
leaf_value=0.0044127910334359581 0.027029673722850839 -0.019505416049552731 0.027774847245513878
leaf_weight=11.152709633111952 6.6802096217870703 221.75864854454994 141.28990623354912
leaf_count=29 20 920 344
internal_value=-0.000450037 -0.0181446 0.0260657
internal_weight=380.881 228.439 152.443
internal_count=1313 940 373
is_linear=0
shrinkage=0.0345712


Tree=58
num_leaves=4
num_cat=0
split_feature=61 62 67
split_gain=41.9838 22.4365 13.7871
threshold=19262.240000000002 74.2839952938876 0.28508987232824445
decision_type=2 2 2
left_child=1 -1 -2
right_child=2 -3 -4
leaf_value=0.021685027192611336 0.0019286027339974899 -0.02212662011022028 -0.013817410733808308
leaf_weight=114.94749772548676 111.92075502872467 15.90306907892227 163.6197314709425
leaf_count=348 348 56 561
internal_value=0.000235753 0.0163603 -0.0074216
internal_weight=406.391 130.851 275.54
internal_count=1313 404 909
is_linear=0
shrinkage=0.0345712


Tree=59
num_leaves=4
num_cat=0
split_feature=64 62 62
split_gain=140.736 10.1772 6.73761
threshold=1.0000000180025095e-35 58.809622257243852 73.392700555475486
decision_type=2 2 2
left_child=1 -1 -2
right_child=2 -3 -4
leaf_value=-0.020101643576593421 0.020824156655735664 0.00041140145497478049 0.036397380897938161
leaf_weight=194.14020429551601 105.78056317567825 33.96377044916153 48.392934203147888
leaf_count=777 292 112 132
internal_value=0.000197769 -0.0170473 0.0257124
internal_weight=382.277 228.104 154.173
internal_count=1313 889 424
is_linear=0
shrinkage=0.0345712


Tree=60
num_leaves=4
num_cat=0
split_feature=64 47 62
split_gain=141.588 11.5588 4.64695
threshold=-1.0000000180025095e-35 48.034061210330442 36.59609418713459
decision_type=2 2 2
left_child=2 -2 -1
right_child=1 -3 -4
leaf_value=0.031954502824158695 -0.0057596943577612096 -0.022922537560748003 0.019802952235265004
leaf_weight=69.553933620452881 66.594854921102524 158.57422259449959 81.90337336063385
leaf_count=168 234 706 205
internal_value=-0.000461995 -0.0178465 0.0253833
internal_weight=376.626 225.169 151.457
internal_count=1313 940 373
is_linear=0
shrinkage=0.0345712


Tree=61
num_leaves=4
num_cat=0
split_feature=31 62 0
split_gain=39.5721 23.3068 13.218
threshold=19337.935500000003 74.2839952938876 31756.400000000005
decision_type=2 2 2
left_child=1 -1 -2
right_child=2 -3 -4
leaf_value=0.021338144873948001 -0.00016508317725963298 -0.022307517284837864 -0.015453893177986096
leaf_weight=115.2634305357933 145.39876818656921 16.747376054525375 126.28363439440727
leaf_count=350 444 60 459
internal_value=0.000273323 0.0158011 -0.00727164
internal_weight=403.693 132.011 271.682
internal_count=1313 410 903
is_linear=0
shrinkage=0.0345712


Tree=62
num_leaves=4
num_cat=0
split_feature=64 62 47
split_gain=132.833 9.84637 6.65819
threshold=1.0000000180025095e-35 58.809622257243852 61.37159643997483
decision_type=2 2 2
left_child=1 -1 -2
right_child=2 -3 -4
leaf_value=-0.019799313275447511 0.015568548607450328 0.00040757065768925956 0.030502386046986886
leaf_weight=190.89284636080265 56.554226577281952 33.945950478315353 96.67786505818367
leaf_count=777 157 112 267
internal_value=0.000168383 -0.0167485 0.0249907
internal_weight=378.071 224.839 153.232
internal_count=1313 889 424
is_linear=0
shrinkage=0.0345712


Tree=63
num_leaves=4
num_cat=0
split_feature=64 47 18
split_gain=134.039 11.1885 4.67583
threshold=-1.0000000180025095e-35 48.034061210330442 -2313.335814172759
decision_type=2 2 2
left_child=2 -2 -1
right_child=1 -3 -4
leaf_value=0.0030649637173810018 -0.0056838670092167771 -0.022635409841230844 0.026436428935769432
leaf_weight=11.041786819696425 66.425851687788963 155.40878066420555 139.32215973734856
leaf_count=29 234 706 344
internal_value=-0.000478976 -0.0175595 0.0247202
internal_weight=372.199 221.835 150.364
internal_count=1313 940 373
is_linear=0
shrinkage=0.0345712


Tree=64
num_leaves=4
num_cat=0
split_feature=31 62 0
split_gain=37.245 21.7885 12.594
threshold=19337.935500000003 74.2839952938876 31756.400000000005
decision_type=2 2 2
left_child=1 -1 -2
right_child=2 -3 -4
leaf_value=0.020709030213805171 -0.00011846046600218392 -0.021867815941146347 -0.015112524643566482
leaf_weight=115.11090287566185 144.86865432560444 16.413402795791626 124.4762896001339
leaf_count=350 444 60 459
internal_value=0.000315808 0.0153957 -0.00704789
internal_weight=400.869 131.524 269.345
internal_count=1313 410 903
is_linear=0
shrinkage=0.0345712


Tree=65
num_leaves=4
num_cat=0
split_feature=64 62 62
split_gain=125.311 9.51986 6.49783
threshold=1.0000000180025095e-35 58.809622257243852 59.770231569400963
decision_type=2 2 2
left_child=1 -1 -2
right_child=2 -3 -4
leaf_value=-0.019496385941518011 0.012691580863844858 0.00040323460645402218 0.028694171202195175
leaf_weight=187.6623317450285 41.820844680070877 33.926634848117828 110.33462405204773
leaf_count=777 116 112 308
internal_value=0.000138267 -0.0164496 0.0242958
internal_weight=373.744 221.589 152.155
internal_count=1313 889 424
is_linear=0
shrinkage=0.0345712


Tree=66
num_leaves=4
num_cat=0
split_feature=64 47 62
split_gain=126.935 11.0015 4.69363
threshold=-1.0000000180025095e-35 33.452565479697391 36.59609418713459
decision_type=2 2 2
left_child=2 -2 -1
right_child=1 -3 -4
leaf_value=0.030748169966201437 0.026240471658910563 -0.018660383625858187 0.018442822570878935
leaf_weight=68.407398343086243 6.7290525734424582 211.83150170743465 80.810646831989288
leaf_count=168 20 920 205
internal_value=-0.000496236 -0.017278 0.0240841
internal_weight=367.779 218.561 149.218
internal_count=1313 940 373
is_linear=0
shrinkage=0.0345712


Tree=67
num_leaves=4
num_cat=0
split_feature=31 62 46
split_gain=35.0602 20.3871 11.9488
threshold=19337.935500000003 74.2839952938876 30939.647000000004
decision_type=2 2 2
left_child=1 -1 -2
right_child=2 -3 -4
leaf_value=0.020110495494899447 5.1747581149530094e-05 -0.021442487570382748 -0.014601330369335721
leaf_weight=114.90176430344582 141.64090412855148 16.087546855211258 125.39202803373337
leaf_count=350 434 60 469
internal_value=0.0003573 0.0150071 -0.00682897
internal_weight=398.022 130.989 267.033
internal_count=1313 410 903
is_linear=0
shrinkage=0.0345712


Tree=68
num_leaves=4
num_cat=0
split_feature=64 62 32
split_gain=118.247 9.36413 6.46258
threshold=1.0000000180025095e-35 48.088824337290951 64.90882544416344
decision_type=2 2 2
left_child=1 -1 -2
right_child=2 -3 -4
leaf_value=-0.022174991499106574 0.01626323857626024 -0.0076425830791402721 0.030573221988844462
leaf_weight=127.92993158102036 73.254512637853622 90.468988835811615 77.754242986440659
leaf_count=542 205 347 219
internal_value=0.00010907 -0.0161551 0.0236314
internal_weight=369.408 218.399 151.009
internal_count=1313 889 424
is_linear=0
shrinkage=0.0345712


Tree=69
num_leaves=4
num_cat=0
split_feature=64 62 18
split_gain=120.105 10.8411 4.65174
threshold=-1.0000000180025095e-35 52.521841027486907 -2313.335814172759
decision_type=2 2 2
left_child=2 -2 -1
right_child=1 -3 -4
leaf_value=0.0017433036979505542 -0.0080261911205173168 -0.02370025846442337 0.025192780781621637
leaf_weight=10.915811002254484 92.227394282817841 123.1806218624115 137.06842264533043
leaf_count=29 333 607 344
internal_value=-0.000515925 -0.0169894 0.0234631
internal_weight=363.392 215.408 147.984
internal_count=1313 940 373
is_linear=0
shrinkage=0.0345712


Tree=70
num_leaves=4
num_cat=0
split_feature=31 62 28
split_gain=33.0381 19.0479 12.0674
threshold=19337.935500000003 74.2839952938876 5.5000000000000009
decision_type=2 2 2
left_child=1 -1 -2
right_child=2 -3 -4
leaf_value=0.019534864425002348 0.0034190975796459635 -0.021013147808319834 -0.01204642077418624
leaf_weight=114.65642008185387 92.887808740139008 15.748215109109877 171.87593810260296
leaf_count=350 304 60 599
internal_value=0.000394719 0.0146381 -0.00662061
internal_weight=395.168 130.405 264.764
internal_count=1313 410 903
is_linear=0
shrinkage=0.0345712


Tree=71
num_leaves=4
num_cat=0
split_feature=64 62 32
split_gain=111.769 9.1302 6.32183
threshold=1.0000000180025095e-35 48.088824337290951 64.90882544416344
decision_type=2 2 2
left_child=1 -1 -2
right_child=2 -3 -4
leaf_value=-0.021900961052362482 0.015722316807324725 -0.00746878732492495 0.029928912498861995
leaf_weight=125.32455019652843 72.941985219717026 90.021653801202774 76.907768964767456
leaf_count=542 205 347 219
internal_value=8.62611e-05 -0.0158678 0.0230136
internal_weight=365.196 215.346 149.85
internal_count=1313 889 424
is_linear=0
shrinkage=0.0345712


Tree=72
num_leaves=4
num_cat=0
split_feature=64 62 62
split_gain=113.776 10.5996 4.70436
threshold=-1.0000000180025095e-35 59.465360071012874 36.59609418713459
decision_type=2 2 2
left_child=2 -2 -1
right_child=1 -3 -4
leaf_value=0.029613833395946313 -0.01079698443748309 -0.026799585733439091 0.01718930283403141
leaf_weight=67.124828785657883 133.73031549155712 78.512740463018417 79.630694836378098
leaf_count=168 525 415 205
internal_value=-0.000533076 -0.0167167 0.0228722
internal_weight=358.999 212.243 146.756
internal_count=1313 940 373
is_linear=0
shrinkage=0.0345712


Tree=73
num_leaves=4
num_cat=0
split_feature=31 62 28
split_gain=31.1501 17.8346 11.4879
threshold=19337.935500000003 74.2839952938876 5.5000000000000009
decision_type=2 2 2
left_child=1 -1 -2
right_child=2 -3 -4
leaf_value=0.018999108264408038 0.0033873325840935568 -0.020605543450466429 -0.011742815210515756
leaf_weight=114.39138358831406 92.658012315630913 15.421453863382338 170.04768407344818
leaf_count=350 304 60 599
internal_value=0.000439704 0.0142942 -0.00640631
internal_weight=392.519 129.813 262.706
internal_count=1313 410 903
is_linear=0
shrinkage=0.0345712


Tree=74
num_leaves=4
num_cat=0
split_feature=64 62 62
split_gain=105.445 8.95523 6.27647
threshold=1.0000000180025095e-35 58.809622257243852 59.770231569400963
decision_type=2 2 2
left_child=1 -1 -2
right_child=2 -3 -4
leaf_value=-0.018663940105795602 0.010951356303041128 0.00076996141822244192 0.026803684036202004
leaf_weight=178.62746806442738 41.369333237409592 33.682816505432129 107.21247121691704
leaf_count=777 116 112 308
internal_value=5.20422e-05 -0.0155808 0.02239
internal_weight=360.892 212.31 148.582
internal_count=1313 889 424
is_linear=0
shrinkage=0.0345712


Tree=75
num_leaves=4
num_cat=0
split_feature=64 47 18
split_gain=107.904 10.3934 4.63437
threshold=-1.0000000180025095e-35 48.034061210330442 -2313.335814172759
decision_type=2 2 2
left_child=2 -2 -1
right_child=1 -3 -4
leaf_value=0.0005116924651092931 -0.0049971709177703081 -0.021635501878197488 0.024061048302414925
leaf_weight=10.787345916032789 65.182286232709885 143.99862261116505 134.72085028886795
leaf_count=29 234 706 344
internal_value=-0.000547423 -0.0164509 0.0223152
internal_weight=354.689 209.181 145.508
internal_count=1313 940 373
is_linear=0
shrinkage=0.0345712


Tree=76
num_leaves=4
num_cat=0
split_feature=61 49 56
split_gain=29.8777 26.2238 5.1455
threshold=30939.647000000004 -1.0000000180025095e-35 -0.46125257887092469
decision_type=2 2 2
left_child=1 -1 -2
right_child=2 -3 -4
leaf_value=-0.014390994821537431 -0.0027637856291436633 0.012374394846763666 -0.018402559906079859
leaf_weight=54.998491525650024 35.662825077772141 213.91078120470047 85.258668333292007
leaf_count=165 131 679 338
internal_value=0.000482238 0.00690022 -0.0137903
internal_weight=389.831 268.909 120.921
internal_count=1313 844 469
is_linear=0
shrinkage=0.0345712


Tree=77
num_leaves=4
num_cat=0
split_feature=64 62 62
split_gain=99.517 8.76622 6.15793
threshold=1.0000000180025095e-35 48.088824337290951 73.392700555475486
decision_type=2 2 2
left_child=1 -1 -2
right_child=2 -3 -4
leaf_value=-0.021378167584552028 0.017102077169165369 -0.0070642466940605527 0.032448497760520202
leaf_weight=120.45475667715073 102.24795806407928 88.857697620987892 45.004725337028503
leaf_count=542 292 347 132
internal_value=1.73139e-05 -0.0153016 0.0217924
internal_weight=356.565 209.312 147.253
internal_count=1313 889 424
is_linear=0
shrinkage=0.0345712


Tree=78
num_leaves=4
num_cat=0
split_feature=64 62 62
split_gain=101.666 10.3296 4.69247
threshold=-1.0000000180025095e-35 59.465360071012874 36.59609418713459
decision_type=2 2 2
left_child=2 -2 -1
right_child=1 -3 -4
leaf_value=0.028498644507676134 -0.010357420481769068 -0.026474764576553161 0.015970628220422309
leaf_weight=65.699340134859085 131.71409831941128 74.353975422680378 78.340926080942154
leaf_count=168 525 415 205
internal_value=-0.000597605 -0.0161729 0.0216849
internal_weight=350.108 206.068 144.04
internal_count=1313 940 373
is_linear=0
shrinkage=0.0345712


Tree=79
num_leaves=4
num_cat=0
split_feature=46 49 68
split_gain=28.2423 24.3089 5.08013
threshold=30939.647000000004 -1.0000000180025095e-35 0.1075084241703393
decision_type=2 2 2
left_child=1 -1 -2
right_child=2 -3 -4
leaf_value=-0.013941840406681553 0.0010917611870300845 0.011991214930446022 -0.016970708211037244
leaf_weight=54.142469435930252 23.075746953487396 213.75748646259308 96.166788548231125
leaf_count=164 86 680 383
internal_value=0.000520586 0.00675016 -0.0134753
internal_weight=387.142 267.9 119.243
internal_count=1313 844 469
is_linear=0
shrinkage=0.0345712


Tree=80
num_leaves=4
num_cat=0
split_feature=64 62 32
split_gain=94.4115 8.56955 6.12362
threshold=1.0000000180025095e-35 48.088824337290951 64.90882544416344
decision_type=2 2 2
left_child=1 -1 -2
right_child=2 -3 -4
leaf_value=-0.021117013443742422 0.01409151008752671 -0.006884681948841888 0.028249966720221644
leaf_weight=118.09962102770805 71.790285408496857 88.418988034129143 74.290345191955566
leaf_count=542 205 347 219
internal_value=2.17965e-05 -0.0150236 0.0212919
internal_weight=352.599 206.519 146.081
internal_count=1313 889 424
is_linear=0
shrinkage=0.0345712


Tree=81
num_leaves=4
num_cat=0
split_feature=64 62 62
split_gain=94.2194 10.1278 5.06465
threshold=-1.0000000180025095e-35 52.521841027486907 41.23824195108191
decision_type=2 2 2
left_child=2 -2 -1
right_child=1 -3 -4
leaf_value=0.025277574819995364 -0.0072917294438830165 -0.0227619227631169 0.011298898018051296
leaf_weight=97.144031763076782 92.014311194419861 112.30895598977804 45.480388820171356
leaf_count=254 340 606 120
internal_value=-0.000743246 -0.0157951 0.02082
internal_weight=346.948 204.323 142.624
internal_count=1320 946 374
is_linear=0
shrinkage=0.0345712


Tree=82
num_leaves=4
num_cat=0
split_feature=31 62 68
split_gain=33.6236 22.8577 5.05739
threshold=30939.647000000004 74.2839952938876 0.1075084241703393
decision_type=2 2 2
left_child=1 -1 -2
right_child=2 -3 -4
leaf_value=0.011248898073072467 0.00032422064843218182 -0.023949048432491227 -0.01751530093914935
leaf_weight=240.95661537349224 23.638697981834412 24.272189944982529 96.637338563799858
leaf_count=748 88 94 390
internal_value=0.00115234 0.00802779 -0.0140092
internal_weight=385.505 265.229 120.276
internal_count=1320 842 478
is_linear=0
shrinkage=0.0345712


Tree=83
num_leaves=4
num_cat=0
split_feature=64 62 62
split_gain=87.1373 9.34573 8.48364
threshold=1.0000000180025095e-35 49.729206008197728 48.088824337290951
decision_type=2 2 2
left_child=2 -2 -1
right_child=1 -3 -4
leaf_value=-0.021236835651461027 -0.015846451499884354 0.021956943258693139 -0.0070025336317204746
leaf_weight=116.53246738016605 8.2845595479011518 138.17318290472031 87.705988794565201
leaf_count=545 24 404 347
internal_value=-0.000531415 0.0198185 -0.0151242
internal_weight=350.696 146.458 204.238
internal_count=1320 428 892
is_linear=0
shrinkage=0.0345712


Tree=84
num_leaves=4
num_cat=0
split_feature=64 62 47
split_gain=89.3347 9.86822 5.32452
threshold=-1.0000000180025095e-35 52.521841027486907 39.867592727515849
decision_type=2 2 2
left_child=2 -2 -1
right_child=1 -3 -4
leaf_value=0.026188881548081657 -0.0071574316804204263 -0.022524139705094794 0.012639779718176255
leaf_weight=80.169000416994095 91.657282918691635 109.75549655407667 61.072235763072968
leaf_count=211 340 606 163
internal_value=-0.00074916 -0.0155312 0.0203303
internal_weight=342.654 201.413 141.241
internal_count=1320 946 374
is_linear=0
shrinkage=0.0345712


Tree=85
num_leaves=4
num_cat=0
split_feature=0 62 68
split_gain=31.9645 20.9223 4.35693
threshold=31756.400000000005 74.2839952938876 0.1075084241703393
decision_type=2 2 2
left_child=1 -1 -2
right_child=2 -3 -4
leaf_value=0.010772544760685659 -0.00064497985159560475 -0.023512852766131992 -0.017312348996035468
leaf_weight=243.21243038773537 23.487345919013023 23.31151556968689 92.82796972990036
leaf_count=759 88 92 381
internal_value=0.00117459 0.00777377 -0.0139467
internal_weight=382.839 266.524 116.315
internal_count=1320 851 469
is_linear=0
shrinkage=0.0345712


Tree=86
num_leaves=4
num_cat=0
split_feature=64 62 62
split_gain=82.1109 8.937 8.25112
threshold=1.0000000180025095e-35 49.729206008197728 48.088824337290951
decision_type=2 2 2
left_child=2 -2 -1
right_child=1 -3 -4
leaf_value=-0.02096504231150962 -0.015602789497935666 0.02139040578611066 -0.0068429854937002701
leaf_weight=114.04535856842995 8.2776249051094037 136.7214697599411 87.29853068292141
leaf_count=545 24 404 347
internal_value=-0.000557178 0.0192786 -0.014842
internal_weight=346.343 144.999 201.344
internal_count=1320 428 892
is_linear=0
shrinkage=0.0345712


Tree=87
num_leaves=4
num_cat=0
split_feature=64 62 47
split_gain=84.747 9.61213 5.22796
threshold=-1.0000000180025095e-35 52.521841027486907 39.867592727515849
decision_type=2 2 2
left_child=2 -2 -1
right_child=1 -3 -4
leaf_value=0.025709050707686858 -0.0070286119365787977 -0.022290099205896106 0.012222570725015735
leaf_weight=79.197715610265732 91.309955224394798 107.26683259010315 60.668636441230774
leaf_count=211 340 606 163
internal_value=-0.000753881 -0.0152725 0.0198591
internal_weight=338.443 198.577 139.866
internal_count=1320 946 374
is_linear=0
shrinkage=0.0345712


Tree=88
num_leaves=4
num_cat=0
split_feature=0 47 68
split_gain=30.2483 19.8115 4.22995
threshold=31756.400000000005 36.473653161135765 0.1075084241703393
decision_type=2 2 2
left_child=1 -1 -2
right_child=2 -3 -4
leaf_value=-0.01606442101906827 -0.00052548267199839917 0.011370516369459077 -0.017004885704758648
leaf_weight=36.466061964631081 23.385316640138626 229.08638858795166 91.27472348511219
leaf_count=113 88 738 381
internal_value=0.0011957 0.00760311 -0.0136439
internal_weight=380.212 265.552 114.66
internal_count=1320 851 469
is_linear=0
shrinkage=0.0345712


Tree=89
num_leaves=4
num_cat=0
split_feature=64 62 62
split_gain=77.3883 8.544 8.0305
threshold=1.0000000180025095e-35 49.729206008197728 48.088824337290951
decision_type=2 2 2
left_child=2 -2 -1
right_child=1 -3 -4
leaf_value=-0.020698849559830174 -0.015353573591598215 0.020843258090002158 -0.0066832799881709811
leaf_weight=111.63828973472118 8.2703936994075757 135.24639314413071 86.886222779750824
leaf_count=545 24 404 347
internal_value=-0.000583186 0.0187574 -0.0145648
internal_weight=342.041 143.517 198.525
internal_count=1320 428 892
is_linear=0
shrinkage=0.0345712


Tree=90
num_leaves=4
num_cat=0
split_feature=64 62 47
split_gain=80.0073 9.31869 5.03725
threshold=-1.0000000180025095e-35 52.521841027486907 39.867592727515849
decision_type=2 2 2
left_child=2 -2 -1
right_child=1 -3 -4
leaf_value=0.025128318555511193 -0.006926251165403562 -0.022049838158209444 0.011822965481721872
leaf_weight=78.045177817344666 91.00424487888813 104.73430038243532 60.268070638179779
leaf_count=211 340 606 163
internal_value=-0.000796287 -0.0150185 0.0193307
internal_weight=334.052 195.739 138.313
internal_count=1320 946 374
is_linear=0
shrinkage=0.0345712


Tree=91
num_leaves=4
num_cat=0
split_feature=0 62 3
split_gain=28.6196 19.5579 4.14165
threshold=31756.400000000005 74.2839952938876 -1926.0160352611499
decision_type=2 2 2
left_child=1 -1 -2
right_child=2 -3 -4
leaf_value=0.010320492218397807 0.0025248106406079397 -0.023179867231580192 -0.016104635692858773
leaf_weight=241.84767591953278 16.742429673671722 22.790955692529678 96.298787504434586
leaf_count=759 63 92 406
internal_value=0.00121561 0.00743541 -0.0133454
internal_weight=377.68 264.639 113.041
internal_count=1320 851 469
is_linear=0
shrinkage=0.0345712


Tree=92
num_leaves=4
num_cat=0
split_feature=64 32 62
split_gain=73.3542 8.29155 7.85671
threshold=1.0000000180025095e-35 64.90882544416344 48.088824337290951
decision_type=2 2 2
left_child=2 -2 -1
right_child=1 -3 -4
leaf_value=-0.020448867152277884 0.010091024027376484 0.026785235375151907 -0.0065047004510795743
leaf_weight=109.41337774693966 72.108514070510864 70.149048268795013 86.450860202312469
leaf_count=545 211 217 347
internal_value=-0.000571123 0.0183232 -0.0142942
internal_weight=338.122 142.258 195.864
internal_count=1320 428 892
is_linear=0
shrinkage=0.0345712


Tree=93
num_leaves=4
num_cat=0
split_feature=64 62 47
split_gain=75.9003 9.11225 4.96316
threshold=-1.0000000180025095e-35 52.521841027486907 39.867592727515849
decision_type=2 2 2
left_child=2 -2 -1
right_child=1 -3 -4
leaf_value=0.024689860258330698 -0.0067770580662197995 -0.021827768550313393 0.011420772445105776
leaf_weight=77.070125818252563 90.615606769919395 102.4151357114315 59.85538312792778
leaf_count=211 340 606 163
internal_value=-0.000797547 -0.0147624 0.0188894
internal_weight=329.956 193.031 136.926
internal_count=1320 946 374
is_linear=0
shrinkage=0.0345712


Tree=94
num_leaves=4
num_cat=0
split_feature=0 17 68
split_gain=27.1132 18.621 4.12122
threshold=31756.400000000005 35.185943925753897 0.1075084241703393
decision_type=2 2 2
left_child=1 -1 -2
right_child=2 -3 -4
leaf_value=-0.018856873725518475 -3.6357223644510596e-05 0.010509500112187178 -0.016450429587937077
leaf_weight=28.996577560901642 23.045136138796806 234.57989166676998 88.450770482420921
leaf_count=91 88 760 381
internal_value=0.00123347 0.00727885 -0.0130578
internal_weight=375.072 263.576 111.496
internal_count=1320 851 469
is_linear=0
shrinkage=0.0345712


Tree=95
num_leaves=4
num_cat=0
split_feature=64 62 62
split_gain=69.1221 8.13065 7.64111
threshold=1.0000000180025095e-35 49.729206008197728 48.088824337290951
decision_type=2 2 2
left_child=2 -2 -1
right_child=1 -3 -4
leaf_value=-0.020186344987337162 -0.015442915653607704 0.01990483893984922 -0.0063524382808039757
leaf_weight=107.11536424607038 8.2623676359653455 132.48308756947517 86.057915136218071
leaf_count=545 24 404 347
internal_value=-0.000597408 0.0178298 -0.0140234
internal_weight=333.919 140.745 193.173
internal_count=1320 428 892
is_linear=0
shrinkage=0.0345712


Tree=96
num_leaves=4
num_cat=0
split_feature=64 62 47
split_gain=71.6881 8.87909 4.8167
threshold=-1.0000000180025095e-35 59.465360071012874 39.867592727515849
decision_type=2 2 2
left_child=2 -2 -1
right_child=1 -3 -4
leaf_value=0.024165939169319091 -0.0092193504609027407 -0.025044725364694587 0.011026199432300411
leaf_weight=75.929982706904411 126.65891990810633 63.675245344638824 59.448719799518585
leaf_count=211 531 415 163
internal_value=-0.000835181 -0.0145136 0.0183959
internal_weight=325.713 190.334 135.379
internal_count=1320 946 374
is_linear=0
shrinkage=0.0345712


Tree=97
num_leaves=4
num_cat=0
split_feature=0 62 68
split_gain=25.6513 18.191 3.99696
threshold=31756.400000000005 74.2839952938876 0.1075084241703393
decision_type=2 2 2
left_child=1 -1 -2
right_child=2 -3 -4
leaf_value=0.009886188922089716 6.4247697038444715e-05 -0.022813014133818966 -0.016153799487932143
leaf_weight=240.41536203026772 22.953765913844109 22.212109297513962 86.998404040932655
leaf_count=759 88 92 381
internal_value=0.00125124 0.00712061 -0.0127681
internal_weight=372.58 262.627 109.952
internal_count=1320 851 469
is_linear=0
shrinkage=0.0345712


Tree=98
num_leaves=4
num_cat=0
split_feature=64 47 62
split_gain=65.4987 8.20236 7.46563
threshold=1.0000000180025095e-35 69.591461926771629 48.088824337290951
decision_type=2 2 2
left_child=2 -2 -1
right_child=1 -3 -4
leaf_value=-0.019939367999802893 0.010842352402734656 0.028108892166514288 -0.0061855334600908838
leaf_weight=104.98301565647125 86.365437388420105 53.097910672426224 85.649873822927475
leaf_count=545 258 170 347
internal_value=-0.000588184 0.0174162 -0.0137599
internal_weight=330.096 139.463 190.633
internal_count=1320 428 892
is_linear=0
shrinkage=0.0345712


Tree=99
num_leaves=4
num_cat=0
split_feature=64 62 62
split_gain=68.0201 8.76243 4.7701
threshold=-1.0000000180025095e-35 59.465360071012874 41.23824195108191
decision_type=2 2 2
left_child=2 -2 -1
right_child=1 -3 -4
leaf_value=0.022515988576550294 -0.0090223438129873705 -0.024905256578071341 0.0085987576039619987
leaf_weight=90.329113617539406 125.82137522101402 61.955681703984737 43.66127422451973
leaf_count=254 531 415 120
internal_value=-0.000835833 -0.0142628 0.017981
internal_weight=321.767 187.777 133.99
internal_count=1320 946 374
is_linear=0
shrinkage=0.0345712


Tree=100
num_leaves=4
num_cat=0
split_feature=0 17 56
split_gain=24.2997 17.3333 3.99175
threshold=31756.400000000005 35.185943925753897 -0.46125257887092469
decision_type=2 2 2
left_child=1 -1 -2
right_child=2 -3 -4
leaf_value=-0.018481404942247964 -0.0023395982767455857 0.01008434394163436 -0.016822361522300988
leaf_weight=28.490936994552612 32.45569871366024 233.06084732711315 76.021563127636909
leaf_count=91 129 760 340
internal_value=0.00126725 0.00697267 -0.0124892
internal_weight=370.029 261.552 108.477
internal_count=1320 851 469
is_linear=0
shrinkage=0.0345712


Tree=101
num_leaves=4
num_cat=0
split_feature=64 47 62
split_gain=61.7341 7.94393 7.28045
threshold=1.0000000180025095e-35 69.591461926771629 58.809622257243852
decision_type=2 2 2
left_child=2 -2 -1
right_child=1 -3 -4
leaf_value=-0.016609419017451308 0.010491435975019696 0.027605053942874318 0.0013676819691992488
leaf_weight=155.51569932699203 85.868430584669113 52.078649640083313 32.561992198228836
leaf_count=781 258 170 111
internal_value=-0.00061337 0.0169523 -0.013497
internal_weight=326.025 137.947 188.078
internal_count=1320 428 892
is_linear=0
shrinkage=0.0345712


Tree=102
num_leaves=4
num_cat=0
split_feature=64 62 47
split_gain=64.2906 8.60207 4.68543
threshold=-1.0000000180025095e-35 59.465360071012874 39.867592727515849
decision_type=2 2 2
left_child=2 -2 -1
right_child=1 -3 -4
leaf_value=0.02331021037731831 -0.0088505914915955036 -0.024758053108618013 0.010219251911613159
leaf_weight=73.905700892210007 125.07440104335546 60.175549544394016 58.574465841054916
leaf_count=211 531 415 163
internal_value=-0.000866985 -0.0140179 0.0175222
internal_weight=317.73 185.25 132.48
internal_count=1320 946 374
is_linear=0
shrinkage=0.0345712


Tree=103
num_leaves=4
num_cat=0
split_feature=0 62 3
split_gain=23.0202 16.7794 3.99617
threshold=31756.400000000005 74.2839952938876 -1926.0160352611499
decision_type=2 2 2
left_child=1 -1 -2
right_child=2 -3 -4
leaf_value=0.009460705382211089 0.0035679935190091857 -0.022390111721270131 -0.015044262147672609
leaf_weight=238.95290502905846 16.255910858511925 21.550944939255714 90.783363282680511
leaf_count=759 63 92 406
internal_value=0.00127976 0.00682575 -0.0122176
internal_weight=367.543 260.504 107.039
internal_count=1320 851 469
is_linear=0
shrinkage=0.0345712


Tree=104
num_leaves=4
num_cat=0
split_feature=64 32 62
split_gain=58.4858 7.93167 7.21708
threshold=1.0000000180025095e-35 64.90882544416344 48.088824337290951
decision_type=2 2 2
left_child=2 -2 -1
right_child=1 -3 -4
leaf_value=-0.019477792760066687 0.0084722229019914986 0.025136524111198107 -0.0057911113246298185
leaf_weight=101.03859424591064 70.343448579311371 66.32106126844883 84.601651221513748
leaf_count=545 211 217 347
internal_value=-0.000604707 0.0165591 -0.0132404
internal_weight=322.305 136.665 185.64
internal_count=1320 428 892
is_linear=0
shrinkage=0.0345712


Tree=105
num_leaves=4
num_cat=0
split_feature=49 62 62
split_gain=53.4643 11.5481 11.0419
threshold=-1.0000000180025095e-35 52.081440961132323 45.247315014734781
decision_type=2 2 2
left_child=2 -2 -1
right_child=1 -3 -4
leaf_value=0.021580485890804892 -0.0041165502461861236 -0.021274480084207952 -0.0041072960562446798
leaf_weight=101.44969552755356 95.091434672474861 92.474860087037086 24.910184919834137
leaf_count=293 349 598 80
internal_value=-0.000865755 -0.0125758 0.0165165
internal_weight=313.926 187.566 126.36
internal_count=1320 947 373
is_linear=0
shrinkage=0.0345712


Tree=106
num_leaves=4
num_cat=0
split_feature=0 47 6
split_gain=21.8126 16.3268 4.03089
threshold=31756.400000000005 36.473653161135765 0.12132352941176471
decision_type=2 2 2
left_child=1 -1 -2
right_child=2 -3 -4
leaf_value=-0.015320181951192906 0.011868073403418484 0.010105368875667643 -0.01386286686853351
leaf_weight=34.873371824622154 7.8614375889301291 224.52173522114754 97.782378047704697
leaf_count=113 36 738 433
internal_value=0.00129401 0.00668713 -0.0119481
internal_weight=365.039 259.395 105.644
internal_count=1320 851 469
is_linear=0
shrinkage=0.0345712


Tree=107
num_leaves=4
num_cat=0
split_feature=64 32 62
split_gain=55.1072 7.69769 7.02895
threshold=1.0000000180025095e-35 69.911966516066073 48.088824337290951
decision_type=2 2 2
left_child=2 -2 -1
right_child=1 -3 -4
leaf_value=-0.019229083796253779 0.0099813317208697575 0.027212171087795521 -0.0056417765283913388
leaf_weight=98.992455817759037 87.010102659463882 48.125759899616241 84.216458156704903
leaf_count=545 266 162 347
internal_value=-0.000630076 0.0161177 -0.0129833
internal_weight=318.345 135.136 183.209
internal_count=1320 428 892
is_linear=0
shrinkage=0.0345712


Tree=108
num_leaves=4
num_cat=0
split_feature=64 47 18
split_gain=56.2218 9.02269 6.20748
threshold=-1.0000000180025095e-35 33.452565479697391 -2368.5740482120032
decision_type=2 2 2
left_child=2 -2 -1
right_child=1 -3 -4
leaf_value=-0.013011376372674421 0.026076706897653058 -0.014818399961372526 0.018567641483721448
leaf_weight=7.9281288385391226 6.6968460679054251 173.49504940211773 120.72151586413383
leaf_count=24 20 924 347
internal_value=-0.000835151 -0.0132985 0.0166216
internal_weight=308.842 180.192 128.65
internal_count=1315 944 371
is_linear=0
shrinkage=0.0345712


Tree=109
num_leaves=4
num_cat=0
split_feature=31 67 17
split_gain=21.8175 11.6955 11.0944
threshold=19337.935500000003 0.27597896173580766 35.405005050896015
decision_type=2 2 2
left_child=2 -2 -1
right_child=1 -3 -4
leaf_value=-0.02349073547539246 0.0044132498541081654 -0.011182977345761042 0.015903825392883281
leaf_weight=9.2548298090696317 93.942238926887512 147.99910092353821 111.23705260455608
leaf_count=27 317 596 375
internal_value=0.000858674 -0.00512719 0.012878
internal_weight=362.433 241.941 120.492
internal_count=1315 913 402
is_linear=0
shrinkage=0.0345712


Tree=110
num_leaves=4
num_cat=0
split_feature=64 62 2
split_gain=51.1049 7.28592 6.63545
threshold=1.0000000180025095e-35 58.809622257243852 67.020614254366464
decision_type=2 2 2
left_child=1 -1 -2
right_child=2 -3 -4
leaf_value=-0.015524692320908841 0.0097151298985427119 0.0025338186219532335 0.02539439387494926
leaf_weight=147.0728517845273 81.796302363276482 32.62583863735199 53.265637159347534
leaf_count=772 253 112 178
internal_value=-0.00016928 -0.012246 0.0158987
internal_weight=314.761 179.699 135.062
internal_count=1315 884 431
is_linear=0
shrinkage=0.0345712


Tree=111
num_leaves=4
num_cat=0
split_feature=64 47 18
split_gain=53.143 8.56298 6.00632
threshold=-1.0000000180025095e-35 33.452565479697391 -2368.5740482120032
decision_type=2 2 2
left_child=2 -2 -1
right_child=1 -3 -4
leaf_value=-0.012928286524374213 0.025096753672594802 -0.01456477671346154 0.018133995300514912
leaf_weight=7.93454685807228 6.7630286067724219 171.19946725666523 119.35671481490135
leaf_count=24 20 924 347
internal_value=-0.000858033 -0.0130575 0.0161978
internal_weight=305.254 177.962 127.291
internal_count=1315 944 371
is_linear=0
shrinkage=0.0345712


Tree=112
num_leaves=4
num_cat=0
split_feature=31 67 17
split_gain=20.6143 11.0806 10.4806
threshold=19337.935500000003 0.27597896173580766 35.405005050896015
decision_type=2 2 2
left_child=2 -2 -1
right_child=1 -3 -4
leaf_value=-0.023018361429598393 0.0043118409100412515 -0.010912897418030417 0.015521003941175318
leaf_weight=9.1290067881345731 93.692583218216896 146.42027717828751 110.68551509082317
leaf_count=27 317 596 375
internal_value=0.000872214 -0.00497217 0.0125846
internal_weight=359.927 240.113 119.815
internal_count=1315 913 402
is_linear=0
shrinkage=0.0345712


Tree=113
num_leaves=4
num_cat=0
split_feature=47 32 33
split_gain=38.6723 10.791 8.26856
threshold=51.716481816747475 64.90882544416344 -318.42005381218002
decision_type=2 2 2
left_child=2 -2 -1
right_child=1 -3 -4
leaf_value=-0.0056185773866350448 0.0026410961819870499 0.019618844167878721 -0.023060856600235425
leaf_weight=63.381765387952328 101.21549183875322 80.194858551025391 66.630249582231045
leaf_count=308 367 278 362
internal_value=-0.000167026 0.0101463 -0.0145576
internal_weight=311.422 181.41 130.012
internal_count=1315 645 670
is_linear=0
shrinkage=0.0345712


Tree=114
num_leaves=4
num_cat=0
split_feature=64 62 18
split_gain=50.3309 8.84988 5.7832
threshold=-1.0000000180025095e-35 59.465360071012874 -2368.5740482120032
decision_type=2 2 2
left_child=2 -2 -1
right_child=1 -3 -4
leaf_value=-0.012734847737955147 -0.0075956324596267713 -0.024323729211207012 0.017722673125276301
leaf_weight=7.9528620839118949 120.92463559657335 54.985735289752483 118.0460033416748
leaf_count=24 528 416 347
internal_value=-0.000878227 -0.0128245 0.0158002
internal_weight=301.909 175.91 125.999
internal_count=1315 944 371
is_linear=0
shrinkage=0.0345712


Tree=115
num_leaves=4
num_cat=0
split_feature=31 28 62
split_gain=19.5481 10.6613 10.0294
threshold=19337.935500000003 3.5000000000000004 74.2839952938876
decision_type=2 2 2
left_child=2 -2 -1
right_child=1 -3 -4
leaf_value=0.015697908611753467 0.011300693626568844 -0.0081411390746279188 -0.017400196772405101
leaf_weight=107.02968429028988 40.631155878305435 197.91544564068317 12.188037097454069
leaf_count=347 141 772 55
internal_value=0.000883182 -0.00482965 0.0123142
internal_weight=357.764 238.547 119.218
internal_count=1315 913 402
is_linear=0
shrinkage=0.0345712


Tree=116
num_leaves=4
num_cat=0
split_feature=64 32 62
split_gain=46.6891 8.78529 6.8386
threshold=1.0000000180025095e-35 64.90882544416344 58.809622257243852
decision_type=2 2 2
left_child=2 -2 -1
right_child=1 -3 -4
leaf_value=-0.015105142327383792 0.0069856016292892606 0.024798145421874942 0.0024312904058172925
leaf_weight=143.25364515930414 70.94354210793972 62.025632753968239 32.631503522396088
leaf_count=772 217 214 112
internal_value=-0.000164563 0.0152946 -0.0118517
internal_weight=308.854 132.969 175.885
internal_count=1315 431 884
is_linear=0
shrinkage=0.0345712


Tree=117
num_leaves=4
num_cat=0
split_feature=64 62 18
split_gain=47.7375 8.68724 5.61724
threshold=-1.0000000180025095e-35 59.465360071012874 -2368.5740482120032
decision_type=2 2 2
left_child=2 -2 -1
right_child=1 -3 -4
leaf_value=-0.012670194240987148 -0.0074468521240411197 -0.024196321824398903 0.017346141144540445
leaf_weight=7.9592182934284201 120.27794088423252 53.457937203347683 116.78457264602184
leaf_count=24 528 416 347
internal_value=-0.000885356 -0.0126006 0.015431
internal_weight=298.48 173.736 124.744
internal_count=1315 944 371
is_linear=0
shrinkage=0.0345712


Tree=118
num_leaves=4
num_cat=0
split_feature=31 67 17
split_gain=18.5189 10.3169 9.86388
threshold=19337.935500000003 0.27597896173580766 35.405005050896015
decision_type=2 2 2
left_child=2 -2 -1
right_child=1 -3 -4
leaf_value=-0.022715207459141032 0.0042950123545922054 -0.010476378626472285 0.014929556416929278
leaf_weight=9.0033499002456647 93.070512861013412 143.86528494954109 109.43342915177345
leaf_count=27 317 596 375
internal_value=0.000905617 -0.00467404 0.0120679
internal_weight=355.373 236.936 118.437
internal_count=1315 913 402
is_linear=0
shrinkage=0.0345712


Tree=119
num_leaves=4
num_cat=0
split_feature=64 32 62
split_gain=44.0612 8.56802 6.58705
threshold=1.0000000180025095e-35 64.90882544416344 58.809622257243852
decision_type=2 2 2
left_child=2 -2 -1
right_child=1 -3 -4
leaf_value=-0.014851649869325086 0.0067074501782694524 0.02440013367660545 0.002385501773958821
leaf_weight=141.14557784050703 70.608389064669609 60.952792003750801 32.620134353637695
leaf_count=772 217 214 112
internal_value=-0.000188555 0.0149045 -0.0116158
internal_weight=305.327 131.561 173.766
internal_count=1315 431 884
is_linear=0
shrinkage=0.0345712


Tree=120
num_leaves=4
num_cat=0
split_feature=64 47 18
split_gain=45.1369 8.02216 5.43465
threshold=-1.0000000180025095e-35 33.452565479697391 -2368.5740482120032
decision_type=2 2 2
left_child=2 -2 -1
right_child=1 -3 -4
leaf_value=-0.012580804785911016 0.024413748292161246 -0.013895182395691347 0.016942467772741131
leaf_weight=7.9661500453948966 6.8028230071067801 164.78438288718462 115.45453561842442
leaf_count=24 20 924 347
internal_value=-0.000907645 -0.0123764 0.0150369
internal_weight=295.008 171.587 123.421
internal_count=1315 944 371
is_linear=0
shrinkage=0.0345712


Tree=121
num_leaves=4
num_cat=0
split_feature=31 28 17
split_gain=17.5369 10.0815 9.35596
threshold=19337.935500000003 3.5000000000000004 35.405005050896015
decision_type=2 2 2
left_child=2 -2 -1
right_child=1 -3 -4
leaf_value=-0.022307491956689299 0.011192497295162984 -0.0077838703381559946 0.014599849743807387
leaf_weight=8.8783836364746076 40.397599309682846 194.84587797522545 108.88558420538902
leaf_count=27 141 772 375
internal_value=0.000926761 -0.00452512 0.0118174
internal_weight=353.007 235.243 117.764
internal_count=1315 913 402
is_linear=0
shrinkage=0.0345712


Tree=122
num_leaves=4
num_cat=0
split_feature=64 32 62
split_gain=41.6522 8.41229 6.36167
threshold=1.0000000180025095e-35 64.90882544416344 58.809622257243852
decision_type=2 2 2
left_child=2 -2 -1
right_child=1 -3 -4
leaf_value=-0.014601618850359212 0.0064252963381231775 0.024049985204761828 0.0023647413094490832
leaf_weight=139.10586229711771 70.267260327935219 60.007989421486855 32.604161739349365
leaf_count=772 217 214 112
internal_value=-0.000196669 0.0145437 -0.0113801
internal_weight=301.985 130.275 171.71
internal_count=1315 431 884
is_linear=0
shrinkage=0.0345712


Tree=123
num_leaves=4
num_cat=0
split_feature=64 62 62
split_gain=42.6851 8.50879 5.55078
threshold=-1.0000000180025095e-35 59.465360071012874 41.23824195108191
decision_type=2 2 2
left_child=2 -2 -1
right_child=1 -3 -4
leaf_value=0.019771403713996879 -0.0070841959545750541 -0.023980718408575078 0.0040406403353760471
leaf_weight=82.372700855135918 118.70429944247007 50.892404355108738 39.744531705975533
leaf_count=254 528 416 117
internal_value=-0.000932913 -0.0121545 0.0146516
internal_weight=291.714 169.597 122.117
internal_count=1315 944 371
is_linear=0
shrinkage=0.0345712


Tree=124
num_leaves=4
num_cat=0
split_feature=31 28 62
split_gain=16.599 9.61296 9.06458
threshold=19337.935500000003 3.5000000000000004 74.2839952938876
decision_type=2 2 2
left_child=2 -2 -1
right_child=1 -3 -4
leaf_value=0.014798631021498317 0.01095939828331401 -0.0075905179919257149 -0.017056516903820512
leaf_weight=105.14466278254986 40.360068395733833 193.30822613835335 11.882779613137243
leaf_count=347 141 772 55
internal_value=0.000936227 -0.00438651 0.0115641
internal_weight=350.696 233.668 117.027
internal_count=1315 913 402
is_linear=0
shrinkage=0.0345712


Tree=125
num_leaves=4
num_cat=0
split_feature=64 32 62
split_gain=39.5442 8.27953 6.18796
threshold=1.0000000180025095e-35 64.90882544416344 58.554757028037265
decision_type=2 2 2
left_child=2 -2 -1
right_child=1 -3 -4
leaf_value=-0.014459251978368642 0.0061783569381429915 0.023745867466237455 0.0020273905433934522
leaf_weight=135.75067910552025 69.973180860280991 59.183156490325928 34.029675245285034
leaf_count=766 217 214 118
internal_value=-0.000187957 0.0142283 -0.0111548
internal_weight=298.937 129.156 169.78
internal_count=1315 431 884
is_linear=0
shrinkage=0.0345712


Tree=126
num_leaves=4
num_cat=0
split_feature=49 62 1
split_gain=40.5313 9.35916 8.66743
threshold=-1.0000000180025095e-35 45.247315014734781 34008.784500000016
decision_type=2 2 2
left_child=1 -1 -2
right_child=2 -3 -4
leaf_value=0.019560233904698923 -0.016475424461388256 -0.0048881869589140689 0.00094758761359431236
leaf_weight=94.100199893116951 123.92014964669943 23.359426625072956 47.093620844185352
leaf_count=292 706 79 238
internal_value=-0.000937955 0.0146981 -0.0116775
internal_weight=288.473 117.46 171.014
internal_count=1315 371 944
is_linear=0
shrinkage=0.0345712


Tree=127
num_leaves=4
num_cat=0
split_feature=16 67 52
split_gain=15.7786 9.08613 8.70692
threshold=18209.361000000001 0.27597896173580766 0.2170612311949521
decision_type=2 2 2
left_child=2 -2 -1
right_child=1 -3 -4
leaf_value=-0.023452758806275981 0.0043794162750064522 -0.0092789846354742033 0.014946393243449273
leaf_weight=7.6092625260353079 96.324199631810188 147.12045733630657 97.326445966959
leaf_count=24 332 619 340
internal_value=0.000955669 -0.00387474 0.0121619
internal_weight=348.38 243.445 104.936
internal_count=1315 951 364
is_linear=0
shrinkage=0.0345712


Tree=128
num_leaves=4
num_cat=0
split_feature=64 32 62
split_gain=37.3159 8.0743 5.96521
threshold=1.0000000180025095e-35 64.90882544416344 58.809622257243852
decision_type=2 2 2
left_child=2 -2 -1
right_child=1 -3 -4
leaf_value=-0.014126369797485801 0.0059257420145510924 0.023376728956127281 0.0023584608202257646
leaf_weight=135.27321561425924 69.652223765850067 58.137072846293449 32.547656953334808
leaf_count=772 217 214 112
internal_value=-0.000210958 0.013865 -0.0109293
internal_weight=295.61 127.789 167.821
internal_count=1315 431 884
is_linear=0
shrinkage=0.0345712


Tree=129
num_leaves=4
num_cat=0
split_feature=64 62 18
split_gain=38.6928 8.31994 5.44414
threshold=-1.0000000180025095e-35 59.465360071012874 -2313.335814172759
decision_type=2 2 2
left_child=2 -2 -1
right_child=1 -3 -4
leaf_value=-0.012170711718543543 -0.0067767696600762335 -0.023787446860543765 0.016098864261574759
leaf_weight=8.7864110767841321 117.27888244390488 48.60645917057991 110.9740192592144
leaf_count=27 528 416 344
internal_value=-0.000950046 -0.0117611 0.0140248
internal_weight=285.646 165.885 119.76
internal_count=1315 944 371
is_linear=0
shrinkage=0.0345712


Tree=130
num_leaves=4
num_cat=0
split_feature=16 58 52
split_gain=14.8932 8.88826 8.27451
threshold=18209.361000000001 5.5000000000000009 0.2170612311949521
decision_type=2 2 2
left_child=2 -2 -1
right_child=1 -3 -4
leaf_value=-0.023035830419979326 0.0051146366581554612 -0.0087094779336221659 0.014586880104891923
leaf_weight=7.5304924845695487 86.588595345616341 155.25439587235451 96.749264195561409
leaf_count=24 316 635 340
internal_value=0.000949037 -0.00375994 0.01187
internal_weight=346.123 241.843 104.28
internal_count=1315 951 364
is_linear=0
shrinkage=0.0345712


Tree=131
num_leaves=4
num_cat=0
split_feature=62 45 62
split_gain=35.6691 7.52363 7.21404
threshold=59.684744524498072 12530.950000000003 49.454536283848846
decision_type=2 2 2
left_child=2 -2 -1
right_child=1 -3 -4
leaf_value=-0.016006476910007776 -0.0013222932801487553 0.019485482062484617 -0.0018599065936914432
leaf_weight=101.48168573528528 27.051939234137535 89.413931608200073 74.866751328110695
leaf_count=600 96 315 304
internal_value=-0.000195026 0.0146524 -0.0100007
internal_weight=292.814 116.466 176.348
internal_count=1315 411 904
is_linear=0
shrinkage=0.0345712


Tree=132
num_leaves=4
num_cat=0
split_feature=49 62 1
split_gain=36.797 9.01913 8.31808
threshold=-1.0000000180025095e-35 45.247315014734781 34008.784500000016
decision_type=2 2 2
left_child=1 -1 -2
right_child=2 -3 -4
leaf_value=0.018898481509699687 -0.016105171818972204 -0.0052357353581257244 0.00111984234690466
leaf_weight=92.155190646648407 120.9080289080739 23.15701250731945 46.352182455360889
leaf_count=292 706 79 238
internal_value=-0.00097316 0.0140518 -0.0113317
internal_weight=282.572 115.312 167.26
internal_count=1315 371 944
is_linear=0
shrinkage=0.0345712


Tree=133
num_leaves=4
num_cat=0
split_feature=31 28 17
split_gain=14.0527 9.03049 8.32382
threshold=19337.935500000003 3.5000000000000004 35.405005050896015
decision_type=2 2 2
left_child=2 -2 -1
right_child=1 -3 -4
leaf_value=-0.021864675822526481 0.0109525825395586 -0.0071315509646658892 0.013473959536059961
leaf_weight=8.610624358057974 39.973549976944923 189.23890042304993 106.4460387378931
leaf_count=27 141 772 375
internal_value=0.000970833 -0.00397776 0.0108293
internal_weight=344.269 229.212 115.057
internal_count=1315 913 402
is_linear=0
shrinkage=0.0345712


Tree=134
num_leaves=4
num_cat=0
split_feature=64 32 62
split_gain=33.9246 7.91474 5.52134
threshold=1.0000000180025095e-35 64.90882544416344 58.809622257243852
decision_type=2 2 2
left_child=2 -2 -1
right_child=1 -3 -4
leaf_value=-0.01369009341602785 0.0054528798316574997 0.022885552303780241 0.0022079165359152725
leaf_weight=131.84729075431824 69.020039945840836 56.696204572916031 32.55566431581974
leaf_count=772 217 214 112
internal_value=-0.000204191 0.0133148 -0.0105419
internal_weight=290.119 125.716 164.403
internal_count=1315 431 884
is_linear=0
shrinkage=0.0345712


Tree=135
num_leaves=4
num_cat=0
split_feature=64 62 62
split_gain=34.5807 7.4888 4.79904
threshold=-1.0000000180025095e-35 59.465360071012874 41.23824195108191
decision_type=2 2 2
left_child=2 -2 -1
right_child=1 -3 -4
leaf_value=0.017787762504182091 -0.0071344562776783941 -0.023572021173716814 0.0027497672799812085
leaf_weight=78.096669092774391 115.71705031394958 46.411951772868633 37.562044695019722
leaf_count=252 528 419 113
internal_value=-0.00153768 -0.01184 0.0129039
internal_weight=277.788 162.129 115.659
internal_count=1312 947 365
is_linear=0
shrinkage=0.0345712


Tree=136
num_leaves=4
num_cat=0
split_feature=31 47 56
split_gain=14.8669 13.368 4.77309
threshold=30939.647000000004 36.473653161135765 -0.46125257887092469
decision_type=2 2 2
left_child=1 -1 -2
right_child=2 -3 -4
leaf_value=-0.014917706067173879 0.0012220418665773384 0.0089891901500254012 -0.015448112204550899
leaf_weight=32.157822534441948 29.915368318557739 213.85172091424465 65.419229537248611
leaf_count=109 130 738 335
internal_value=0.00137277 0.00586413 -0.0102171
internal_weight=341.344 246.01 95.3346
internal_count=1312 847 465
is_linear=0
shrinkage=0.0345712


Tree=137
num_leaves=4
num_cat=0
split_feature=64 62 62
split_gain=30.8122 6.61964 5.4116
threshold=1.0000000180025095e-35 73.392700555475486 44.005184029611861
decision_type=2 2 2
left_child=2 -2 -1
right_child=1 -3 -4
leaf_value=-0.018195639694673093 0.0079650178181165359 0.026010733757726941 -0.0051617853778157009
leaf_weight=61.605033814907074 92.538273394107819 32.943985760211945 99.667151153087616
leaf_count=416 304 130 462
internal_value=-0.000144504 0.0127027 -0.0101406
internal_weight=286.754 125.482 161.272
internal_count=1312 434 878
is_linear=0
shrinkage=0.0345712


Tree=138
num_leaves=4
num_cat=0
split_feature=64 62 18
split_gain=32.5577 7.37098 4.78463
threshold=-1.0000000180025095e-35 59.465360071012874 -2313.335814172759
decision_type=2 2 2
left_child=2 -2 -1
right_child=1 -3 -4
leaf_value=-0.011717669006129744 -0.0069734952659695872 -0.023457419592528748 0.014594644855381318
leaf_weight=8.9621453136205655 115.05207536369562 45.142648488283157 105.36638627946377
leaf_count=28 528 419 337
internal_value=-0.0015608 -0.0116186 0.012532
internal_weight=274.523 160.195 114.329
internal_count=1312 947 365
is_linear=0
shrinkage=0.0345712


Tree=139
num_leaves=4
num_cat=0
split_feature=45 47 71
split_gain=14.141 13.3946 4.16703
threshold=31756.400000000005 36.473653161135765 -0.94340980879162772
decision_type=2 2 2
left_child=1 -1 -2
right_child=2 -3 -4
leaf_value=-0.014467012556441014 0.0057464431693245504 0.0089218560596933567 -0.01352215993088752
leaf_weight=33.934192270040512 16.271594151854515 212.66472628712654 76.37843020260334
leaf_count=121 71 736 384
internal_value=0.00137698 0.00570334 -0.0101381
internal_weight=339.249 246.599 92.65
internal_count=1312 857 455
is_linear=0
shrinkage=0.0345712


Tree=140
num_leaves=4
num_cat=0
split_feature=64 32 47
split_gain=29.1698 5.8595 4.40486
threshold=1.0000000180025095e-35 64.90882544416344 51.857310716911066
decision_type=2 2 2
left_child=2 -2 -1
right_child=1 -3 -4
leaf_value=-0.014440305379164728 0.0054637087676971023 0.020514357822851131 -0.0026246347841412066
leaf_weight=98.509704850614071 66.943595886230469 57.444672167301178 61.096184246242046
leaf_count=616 212 222 262
internal_value=-0.000136145 0.0124144 -0.00991734
internal_weight=283.994 124.388 159.606
internal_count=1312 434 878
is_linear=0
shrinkage=0.0345712


Tree=141
num_leaves=4
num_cat=0
split_feature=64 62 68
split_gain=30.6999 7.2449 4.73177
threshold=-1.0000000180025095e-35 59.465360071012874 0.10805691570988692
decision_type=2 2 2
left_child=2 -2 -1
right_child=1 -3 -4
leaf_value=-0.003446167956725235 -0.0068248375741851823 -0.023343713294793539 0.015377356042512729
leaf_weight=19.230309948325157 114.41742403060198 43.91012355312705 93.871274366974831
leaf_count=62 528 419 303
internal_value=-0.00157936 -0.0114061 0.0121769
internal_weight=271.429 158.328 113.102
internal_count=1312 947 365
is_linear=0
shrinkage=0.0345712


Tree=142
num_leaves=4
num_cat=0
split_feature=31 47 56
split_gain=13.3916 12.0145 4.5441
threshold=30939.647000000004 36.473653161135765 -0.46125257887092469
decision_type=2 2 2
left_child=1 -1 -2
right_child=2 -3 -4
leaf_value=-0.014307232446769569 0.001402078584476485 0.0085895137622024314 -0.014979386502050777
leaf_weight=31.442930683493614 29.689865216612816 212.47717796266079 63.572427697479725
leaf_count=109 130 738 335
internal_value=0.00137779 0.00563797 -0.00976438
internal_weight=337.182 243.92 93.2623
internal_count=1312 847 465
is_linear=0
shrinkage=0.0345712


Tree=143
num_leaves=4
num_cat=0
split_feature=62 33 45
split_gain=27.861 7.98507 7.15646
threshold=59.684744524498072 -389.06486117320179 12530.950000000003
decision_type=2 2 2
left_child=1 -1 -2
right_child=2 -3 -4
leaf_value=0.00049553226113938499 -0.0027644080674612522 -0.015001949807186167 0.017881210137602081
leaf_weight=64.458460956811905 26.068174660205841 103.60390287637711 87.15858756005764
leaf_count=329 94 569 320
internal_value=-0.00012756 -0.00905806 0.013128
internal_weight=281.289 168.062 113.227
internal_count=1312 898 414
is_linear=0
shrinkage=0.0345712


Tree=144
num_leaves=4
num_cat=0
split_feature=64 62 13
split_gain=29.0358 7.12323 4.73302
threshold=-1.0000000180025095e-35 52.081440961132323 17.500000000000004
decision_type=2 2 2
left_child=2 -2 -1
right_child=1 -3 -4
leaf_value=0.014135996788996906 -0.0041712153075041192 -0.018934549875831052 -0.010288521998704009
leaf_weight=101.53747075796127 82.064182452857494 74.539109889417887 10.459072232246397
leaf_count=330 334 613 35
internal_value=-0.0015858 -0.0111982 0.0118551
internal_weight=268.6 156.603 111.997
internal_count=1312 947 365
is_linear=0
shrinkage=0.0345712


Tree=145
num_leaves=4
num_cat=0
split_feature=45 47 62
split_gain=12.7645 12.015 3.97351
threshold=31756.400000000005 36.473653161135765 55.077532464996629
decision_type=2 2 2
left_child=1 -1 -2
right_child=2 -3 -4
leaf_value=-0.013862548318458292 -0.004454748281353429 0.0085134262541350023 -0.019673951028000423
leaf_weight=33.18380518257618 59.412452653050423 211.35367827117443 31.307149291038513
leaf_count=121 273 736 182
internal_value=0.00136829 0.005477 -0.00970686
internal_weight=335.257 244.537 90.7196
internal_count=1312 857 455
is_linear=0
shrinkage=0.0345712


Tree=146
num_leaves=4
num_cat=0
split_feature=64 62 62
split_gain=26.5062 6.51446 5.28284
threshold=1.0000000180025095e-35 73.392700555475486 44.005184029611861
decision_type=2 2 2
left_child=2 -2 -1
right_child=1 -3 -4
leaf_value=-0.017714460104456098 0.0072337577676975205 0.025462310394900253 -0.0046079665974558624
leaf_weight=58.892996497452259 90.821327164769173 31.578948512673378 97.782163068652153
leaf_count=416 304 130 462
internal_value=-0.000117467 0.0119367 -0.0095346
internal_weight=279.075 122.4 156.675
internal_count=1312 434 878
is_linear=0
shrinkage=0.0345712


Tree=147
num_leaves=4
num_cat=0
split_feature=49 1 62
split_gain=27.7371 8.47169 8.07069
threshold=-1.0000000180025095e-35 40562.000000000007 46.993628224903595
decision_type=2 2 2
left_child=2 -2 -1
right_child=1 -3 -4
leaf_value=0.016270665184555059 -0.01463474087270631 0.0056612302355238007 -0.0092581333496517919
leaf_weight=89.089290171861649 128.46215068548918 30.395757086575031 17.749312728643417
leaf_count=298 786 166 62
internal_value=-0.00159097 -0.0107513 0.0120295
internal_weight=265.697 158.858 106.839
internal_count=1312 952 360
is_linear=0
shrinkage=0.0345712


Tree=148
num_leaves=4
num_cat=0
split_feature=45 47 71
split_gain=12.1347 11.4027 3.93179
threshold=31756.400000000005 36.473653161135765 -0.94340980879162772
decision_type=2 2 2
left_child=1 -1 -2
right_child=2 -3 -4
leaf_value=-0.013574981677288085 0.0059691266119795087 0.0083303214896134903 -0.012877297359653478
leaf_weight=32.827669441699982 16.126359656453133 210.63580426573753 73.663495503365993
leaf_count=121 71 736 384
internal_value=0.00137044 0.0053767 -0.00949246
internal_weight=333.253 243.463 89.7899
internal_count=1312 857 455
is_linear=0
shrinkage=0.0345712


Tree=149
num_leaves=4
num_cat=0
split_feature=62 33 45
split_gain=25.611 7.76215 6.6482
threshold=59.684744524498072 -389.06486117320179 12530.950000000003
decision_type=2 2 2
left_child=1 -1 -2
right_child=2 -3 -4
leaf_value=0.00070216086023882349 -0.0026443436937274903 -0.014699840487990407 0.017350133968425496
leaf_weight=63.635299228131771 25.90623465180397 101.45890835672617 85.374926000833511
leaf_count=329 94 569 320
internal_value=-0.000122971 -0.00876316 0.0126954
internal_weight=276.375 165.094 111.281
internal_count=1312 898 414
is_linear=0
shrinkage=0.0345712


Tree=150
num_leaves=4
num_cat=0
split_feature=49 46 62
split_gain=26.204 8.09843 7.78622
threshold=-1.0000000180025095e-35 37212.239500000003 46.993628224903595
decision_type=2 2 2
left_child=2 -2 -1
right_child=1 -3 -4
leaf_value=0.015907336653013714 -0.015116639505808055 0.002889825795513144 -0.0092099261825962769
leaf_weight=88.165372297167778 117.38859239220619 40.032174549996853 17.714372009038925
leaf_count=298 731 221 62
internal_value=-0.00159326 -0.0105376 0.0117051
internal_weight=263.301 157.421 105.88
internal_count=1312 952 360
is_linear=0
shrinkage=0.0345712


Tree=151
num_leaves=4
num_cat=0
split_feature=45 47 62
split_gain=11.4191 10.6954 3.87991
threshold=31756.400000000005 36.473653161135765 55.077532464996629
decision_type=2 2 2
left_child=1 -1 -2
right_child=2 -3 -4
leaf_value=-0.013245471054019554 -0.0040663524209309104 0.0080796090807618275 -0.019305387270321068
leaf_weight=32.453370049595833 58.56690588593483 209.98460794985294 30.298010900616646
leaf_count=121 273 736 182
internal_value=0.00133915 0.00522498 -0.00926202
internal_weight=331.303 242.438 88.8649
internal_count=1312 857 455
is_linear=0
shrinkage=0.0345712


Tree=152
num_leaves=4
num_cat=0
split_feature=62 62 33
split_gain=24.7544 7.53175 4.86096
threshold=51.716481816747475 73.537464666662771 -305.74050851568899
decision_type=2 2 2
left_child=2 -2 -1
right_child=1 -3 -4
leaf_value=-0.0055570933726857303 0.0046605695819997729 0.023322399534232836 -0.020278150816075608
leaf_weight=52.661836475133896 135.32263865321875 31.950010284781456 54.607678286731243
leaf_count=300 513 133 366
internal_value=-8.79938e-05 0.00822508 -0.0130511
internal_weight=274.542 167.273 107.27
internal_count=1312 646 666
is_linear=0
shrinkage=0.0345712


Tree=153
num_leaves=4
num_cat=0
split_feature=64 62 18
split_gain=25 6.97979 4.76607
threshold=-1.0000000180025095e-35 59.465360071012874 -2313.335814172759
decision_type=2 2 2
left_child=2 -2 -1
right_child=1 -3 -4
leaf_value=-0.013494440530159774 -0.006203845406517903 -0.022990575392488985 0.013177279925399372
leaf_weight=8.7024732083082181 111.71673813462257 40.27565997838974 100.24352300167084
leaf_count=28 528 419 337
internal_value=-0.00159245 -0.0106521 0.0110468
internal_weight=260.938 151.992 108.946
internal_count=1312 947 365
is_linear=0
shrinkage=0.0345712


Tree=154
num_leaves=4
num_cat=0
split_feature=45 17 62
split_gain=10.7675 10.1051 3.78413
threshold=31756.400000000005 35.185943925753897 55.077532464996629
decision_type=2 2 2
left_child=1 -1 -2
right_child=2 -3 -4
leaf_value=-0.015730642255748752 -0.0039150545833651724 0.0074915109263626279 -0.019072516909019004
leaf_weight=24.980137512087822 58.240862563252449 216.46308606863022 29.736046306788921
leaf_count=93 273 764 182
internal_value=0.00131602 0.00508891 -0.00903825
internal_weight=329.42 241.443 87.9769
internal_count=1312 857 455
is_linear=0
shrinkage=0.0345712


Tree=155
num_leaves=4
num_cat=0
split_feature=62 33 27
split_gain=23.7015 7.43325 6.56186
threshold=59.684744524498072 -389.06486117320179 1.0000000180025095e-35
decision_type=2 2 2
left_child=1 -1 -2
right_child=2 -3 -4
leaf_value=0.00083046660724391929 0.00089001972834756545 -0.0143356800267221 0.018569473046274255
leaf_weight=63.135672204196453 38.758758381009102 99.485412657260895 71.152819752693176
leaf_count=329 148 569 266
internal_value=-6.60198e-05 -0.00844761 0.0123351
internal_weight=272.533 162.621 109.912
internal_count=1312 898 414
is_linear=0
shrinkage=0.0345712


Tree=156
num_leaves=4
num_cat=0
split_feature=49 1 62
split_gain=23.7671 7.73209 7.48653
threshold=-1.0000000180025095e-35 40562.000000000007 46.993628224903595
decision_type=2 2 2
left_child=2 -2 -1
right_child=1 -3 -4
leaf_value=0.015360734625311836 -0.013995622417354359 0.0055328029755704871 -0.0093807160255205187
leaf_weight=86.559998795390129 124.29512747749686 30.100372776389122 17.586854673922062
leaf_count=298 786 166 62
internal_value=-0.00157963 -0.0101884 0.0111827
internal_weight=258.542 154.396 104.147
internal_count=1312 952 360
is_linear=0
shrinkage=0.0345712


Tree=157
num_leaves=4
num_cat=0
split_feature=30 17 18
split_gain=10.2531 9.74169 3.98947
threshold=31071.215000000004 35.185943925753897 -1926.0160352611499
decision_type=2 2 2
left_child=1 -1 -2
right_child=2 -3 -4
leaf_value=-0.015520315309391021 0.0075248409543896208 0.0074328449660334911 -0.011957517748787849
leaf_weight=24.649915754795074 15.114920221269129 213.57411415874958 74.377350457012653
leaf_count=92 64 755 401
internal_value=0.00130985 0.0050578 -0.00866702
internal_weight=327.716 238.224 89.4923
internal_count=1312 847 465
is_linear=0
shrinkage=0.0345712


Tree=158
num_leaves=4
num_cat=0
split_feature=62 62 48
split_gain=22.8444 7.22256 4.337
threshold=51.716481816747475 73.537464666662771 -396.62249616992671
decision_type=2 2 2
left_child=2 -2 -1
right_child=1 -3 -4
leaf_value=-0.0052242252889028919 0.0044493842166989928 0.022923473512096712 -0.019297840529737664
leaf_weight=49.372079610824585 134.2574510127306 31.163488626480103 55.688345700502396
leaf_count=286 513 133 380
internal_value=-7.71118e-05 0.0079297 -0.0126841
internal_weight=270.481 165.421 105.06
internal_count=1312 646 666
is_linear=0
shrinkage=0.0345712


Tree=159
num_leaves=4
num_cat=0
split_feature=64 62 68
split_gain=22.6437 6.82863 4.58229
threshold=-1.0000000180025095e-35 59.465360071012874 0.10805691570988692
decision_type=2 2 2
left_child=2 -2 -1
right_child=1 -3 -4
leaf_value=-0.0050891722305829671 -0.0059248375966777433 -0.022816774432084935 0.013814154559336808
leaf_weight=18.534168511629105 110.56701526790857 38.583628684282303 88.548864394426346
leaf_count=62 528 419 303
internal_value=-0.0015866 -0.0102946 0.0105423
internal_weight=256.234 149.151 107.083
internal_count=1312 947 365
is_linear=0
shrinkage=0.0345712


Tree=160
num_leaves=4
num_cat=0
split_feature=60 58 32
split_gain=9.81929 7.86775 6.74345
threshold=19157.550000000003 5.5000000000000009 36.854670489132701
decision_type=2 2 2
left_child=2 -2 -1
right_child=1 -3 -4
leaf_value=-0.015365306312370866 0.0056719518164623913 -0.0078947656534244202 0.012898892305466795
leaf_weight=11.284907534718512 80.937605872750282 138.53555684536695 95.180576905608177
leaf_count=39 310 610 353
internal_value=0.00128765 -0.00289161 0.009903
internal_weight=325.939 219.473 106.465
internal_count=1312 920 392
is_linear=0
shrinkage=0.0345712


Tree=161
num_leaves=4
num_cat=0
split_feature=62 62 33
split_gain=21.8416 7.0447 4.58022
threshold=51.716481816747475 73.537464666662771 -305.74050851568899
decision_type=2 2 2
left_child=2 -2 -1
right_child=1 -3 -4
leaf_value=-0.0052005099306303591 0.0043523760838198224 0.022699699303292135 -0.019721770893692241
leaf_weight=51.874033577740192 134.0677287876606 30.748302802443504 51.966627158224583
leaf_count=300 513 133 366
internal_value=-4.89656e-05 0.00777528 -0.0124676
internal_weight=268.657 164.816 103.841
internal_count=1312 646 666
is_linear=0
shrinkage=0.0345712


Tree=162
num_leaves=4
num_cat=0
split_feature=64 62 13
split_gain=25.5778 6.59205 5.29622
threshold=-1.0000000180025095e-35 59.465360071012874 17.500000000000004
decision_type=2 2 2
left_child=2 -2 -1
right_child=1 -3 -4
leaf_value=0.01427781291169185 -0.005981462544162216 -0.022723606134433718 -0.011971658067881244
leaf_weight=98.68009153008461 110.60499059408903 37.684521850198507 10.12958964705467
leaf_count=338 530 418 35
internal_value=-0.00089553 -0.0102361 0.0118341
internal_weight=257.099 148.29 108.81
internal_count=1321 948 373
is_linear=0
shrinkage=0.0345712


Tree=163
num_leaves=4
num_cat=0
split_feature=31 62 18
split_gain=10.0445 9.44249 3.76777
threshold=30939.647000000004 74.2839952938876 -1926.0160352611499
decision_type=2 2 2
left_child=1 -1 -2
right_child=2 -3 -4
leaf_value=0.006767644924835471 0.0070374098462412235 -0.019020346206931948 -0.012008457819527999
